tree
version=v4
num_class=1
num_tree_per_iteration=1
label_index=0
max_feature_idx=57
objective=binary sigmoid:1
feature_names=index_x unix_time amt merch_lat merch_long index_y lat long city_pop seconds_since_last_trans is_rapid_trans daily_trans_count daily_amount_sum daily_merchant_count customer_amt_mean customer_amt_median customer_amt_std customer_amt_min customer_amt_max customer_merchant_nunique customer_category_nunique amt_vs_customer_median amt_vs_customer_max amt_zscore merchant_use_count is_first_merchant_use merchant_fraud_rate merchant_fraud_count merchant_amt_mean merchant_amt_std merchant_unique_cards category_fraud_rate is_rare_merchant amt_vs_merchant_mean hour day_of_week day_of_month month is_weekend is_night is_high_risk_hour hour_sin hour_cos is_round_amount is_whole_dollar amt_log prev_amt amt_change_ratio is_increasing_amounts is_high_risk_category distance_from_prev speed_kmh impossible_speed velocity_risk merchant_risk time_risk amount_risk total_risk_score
feature_infos=[12:1852387] [0:1388534284] [1:15034.18] [19.038875999999998:65.751603000000003] [-166.670132:-66.950901999999999] [0:2004] [20.027100000000001:64.755600000000001] [-165.67230000000001:-67.950299999999999] [23:2906700] [0:1096094] [0:1] [1:31] [1:17100.630000000001] [0:31] [46.990995433789955:117.77397039030956] [17.530000000000001:77.549999999999997] [71.987606070942803:1000.6938724957056] [1:28.32] [637.45000000000005:28948.900000000001] [378:688] [27:28] [0.0172974824456242:414.14645669291338] [3.7996677017882619e-05:0.99993348932304105] [-0.96921947507753736:52.596074535270098] [0:19] [0:1] [0:0.017002237136465301] [0:40] [0:149.78454143646411] [0:1024.3731770366862] [0:733] [0:0.0115061640164373] none [0:152.24369591321269] [0:23] [0:6] [1:31] [1:12] [0:1] [0:1] [0:1] [-1:1] [-1:1] [0:1] [0:1] [0.69314718055994529:9.6181480674161435] [0:16837.080000000002] [0:6089.1549295774648] [0:1] [0:1] [0:307.96318188276257] [0:133565.52411659301] [0:1] [0:3] [0:2] [0:3] [0:3] [0:9]
tree_sizes=7542 7605 7585 7627 7681 7660 7652 7710 7630 7689 7673 7691 7698 7759 7675 7748 7729 7658 7782 7689 7740 7711 7680 7778 7680 7690 7754 7799 7749 7713 7778 7800 7689 7777 7765 7795 7694 7750 7750 7747 7807 7726 7809 7766 7780 7745 7799 7822 7822 7776 7782 7813 7853 7883 7766 7858 7767 7816 7806 7775 7802 7789 7756 7858 7835 7722 7754 7779 7841 7832 7807 7750 7754 7846 7764 7811 7833 7839 7735 7755 7833 7778 7801 7821 7876 7780 7703 7824 7840 7815 7784 7702 7741 7844 7817 7852 7744 7829 7744 7726 7775 7821 7851 7740 7756 7856 7808 7726 7816 7838 7745 7758 7757 7726 7729 7701 7819 7713 7779 7792 7762 7829 7766 7774 7810 7810 7722 7834 7696 7725 7830 7727 7725 7763 7781 7735 7942 7729 7733 7868 7862 7889 7742 7842 7730 7795 7849 7847 7722 7727 7785 7770 7746 7829 7722 7803 7815 7829 7852 7864 7731 7796 7685 7713 7765 7786 7796 7717 7728 7764 7696 7839 7791 7714 7705 7895 7922 7824 7692 7840 7715 7684 7783 7746 7834 7698 7727 7662 7875 7882 7731 7718 7743 7866 7837 7704 7871 7833 7719 7889 7908 7834 7675 7866 7773 7719 7878 7674 7843 7856 7882 7712 7749 7713 7744 7855 7728 7707 7806 7706 7905 7691 7699 7866 7876 7876 7865 7730 7877 7690 7692 7695 7872 7710 7881 7712 7755 7701 7714 7684 7937 7699 7867 7780 7764 7716 7713 7917 7946 7699 7899 7934 7697 7720 7741 7707 7710 7733 7847 7923 7934 7724 7679 7679 7716 7672 7907 7717 7921 7775 7906 7682 7683 7857 7748 7921 7726 7918 7732 7919 7857 7725 7931 7661 7683 7719 7691 7906 7734 7725 7716 7946 7892 7694 7932 7924 7745 7945 7706 7905

Tree=0
num_leaves=70
num_cat=0
split_feature=2 46 46 42 42 51 21 45 42 29 2 42 27 29 47 27 46 42 42 2 2 2 45 45 27 42 42 46 47 42 11 46 47 34 42 42 47 51 29 28 29 29 45 26 26 30 45 27 33 47 30 46 29 45 33 21 45 47 46 27 30 2 51 45 29 46 47 47 46
split_gain=599399 145484 57431.1 37658.5 37231.4 8719.8 7429.48 6487.44 6343.32 6242.56 12745.3 5181.23 5122.19 10225.3 4691.06 4525.86 4135.65 3976.14 3958.14 3852.89 3146.31 2967.9 14576.2 2815.86 2242.44 1841.93 18074 1915.43 1884.15 1596.91 1614.39 1553.68 1949.4 1429.21 1416.9 1375.14 1354.18 1287.44 1281.64 1377.8 1196.65 2931.24 2498.87 4724.27 1132.9 1655.49 1101.12 1098.09 1093.82 1034.15 951.269 924.648 906.509 885.156 1036.44 884.649 4973.4 827.543 871.211 811.533 810.795 747.88 747.359 745.813 676.428 674.834 833.231 645.385 1283.08
threshold=278.25500000000005 160.25000000000003 269.00689211749597 0.70736016079090247 0.70736016079090247 58.016238870437284 4.3980098796275273 5.5633953911721763 -0.49960029902358827 121.6841942505378 568.18000000000018 0.96589433349106379 16.001959684460914 149.85111855585197 0.80285121971086604 6.0006168743109827 246.92733110845299 0.86604290961816577 0.86169937851476253 676.26694904716931 6.7750000000000012 223.94000000000003 5.3835083373402171 5.5633953911721763 6.0006168743109827 0.70736016079090247 0.86169937851476253 231.45500000000001 0.93897408723962661 0.99998537836610513 9.5000000000000018 221.07500000000002 5.7665844240559787 2.5000000000000004 0.71241610757647011 0.70736016079090247 0.52900424182266848 18.843466044580854 52.320865713116 56.56891857300316 45.308156939234962 24.582947718782055 3.3136403847656521 1.0000000180025095e-35 1.0000000180025095e-35 613.18440353533344 5.0642708427631202 3.0038659272772734 12.258323702915193 0.83634349475575198 628.04126460609007 659.27821233487964 555.58317887740816 3.1861459788922888 0.11218411908783361 3.9796963298826591 4.4999763215668915 26.985013547603476 5.4350000000000014 2.0007569758523278 677.00139040988711 383.51865306910184 83.913498097771935 5.5633953911721763 285.66135995598216 8.1950000000000021 35.948674968071522 14.786992514310878 77.995000000000019
decision_type=2 2 2 2 2 2 2 2 2 2 2 2 2 2 2 2 2 2 2 2 2 2 2 2 2 2 2 2 2 2 2 2 2 2 2 2 2 2 2 2 2 2 2 2 2 2 2 2 2 2 2 2 2 2 2 2 2 2 2 2 2 2 2 2 2 2 2 2 2
left_child=2 4 21 6 7 11 14 -2 16 15 23 17 67 -14 40 44 -3 18 -5 -15 -7 25 -23 -11 -12 33 -27 55 62 30 47 32 34 -1 63 -24 51 65 39 -37 41 42 43 -4 -6 -46 -8 50 57 53 -22 -20 -33 54 -13 -28 -57 -26 -59 -43 -48 -47 -29 -10 -18 -21 -67 -9 -69
right_child=1 8 3 5 9 20 46 12 31 10 24 49 13 19 -16 -17 64 -19 36 37 29 22 35 -25 48 26 27 28 -30 -31 -32 52 -34 -35 -36 38 -38 -39 -40 -41 -42 59 -44 -45 45 61 60 -49 -50 -51 -52 -53 -54 -55 -56 56 -58 58 -60 -61 -62 -63 -64 -65 -66 66 -68 68 -70
leaf_value=-0.69772237636465462 -0.69575927144422123 -0.94600917235501036 -0.96950649698696523 -0.69569163838698334 -0.89052978784938142 -0.94987996655775453 -0.71462871773922376 -0.98135644900396857 -0.69772237636465539 -0.69640021360025783 -0.9375496818367941 -0.96153318185962355 -0.70344040355094839 -0.98017776449544336 -0.70879135244069558 -0.70054574252017399 -0.74332323942983425 -0.69556714073912396 -0.93888495683964679 -0.94946073563552502 -0.7567449331914754 -0.69556148597621659 -0.98306970715596809 -0.97258895194192718 -0.79766753433550741 -0.69554493167423537 -0.98074173228164929 -0.96301293955762224 -0.69963417271922068 -0.88760430924354039 -0.9182698005911003 -0.70150556664055097 -0.7028486024363757 -0.98500325646692355 -0.75129259293214423 -0.95761900637239772 -0.73331318648495114 -0.91826836587817295 -0.96888211029344118 -0.81751303312788481 -0.97106882857655696 -0.95449570385517613 -0.97898954710824448 -0.71569891827603294 -0.69571472364222331 -0.90912676250425051 -0.92121312664887611 -0.72688321049922677 -0.83446422080022253 -0.69772237636465462 -0.88444442518195032 -0.84523317151129862 -0.91500384583494698 -0.97176846997645849 -0.81497219646093666 -0.70077508040951453 -0.96982729540260304 -0.87365411260717474 -0.71655170522934297 -0.69601910448072102 -0.77899650495799977 -0.77549148768033205 -0.87178740374958008 -0.92070513567540013 -0.94540776819155237 -0.8730646245124204 -0.74534720894733442 -0.96042172663084779 -0.82105975271731824
leaf_weight=1.219195257872342 7.3151715472340575 12.337094871327279 13.614347046241166 8.8246513903141004 12.220981037244199 6.1250047478824845 8.0118545517325419 143.51669892668724 1.2191952578723455 2.7867320179939261 5.6024924945086232 6.9958585035055858 15.994680644944308 53.005965258926153 5.2251225337386122 54.196132058277726 21.481059305369858 14.223944675177334 23.80333598703146 2.3222766816616085 12.801550207659604 14.630343094468115 154.19917166233063 41.481667226180434 16.488164439797401 15.965652186423538 3535.4340201616287 20.145750213414434 2.6415897253900757 6.0088909137994042 3.7446711491793385 624.54728507436812 25.138645078986883 14481.485159173608 11.640411866828797 9.0278505999594945 3.3963296469300976 17.010676693171263 27.228694092482328 11.117899613454936 279.74725476466119 1.0740529652684916 53.673619804903865 8.4182529710233194 8.2440822198987025 6.8216877523809654 5.2251225337386114 84.008358959108591 12.366123329848049 1.219195257872342 6.1540332064032546 10.914700403809546 1.4223944675177325 29.260686188936234 6.7055739182978868 5.1960940752178422 76.983471997082233 2.6996466424316159 38.694935208186507 4.4123256951570511 6.2701470404863358 5.2831794507801533 9.3181351851671916 8.0408830102533084 1.248223716393112 5.9798624552786341 9.3181351851671916 101.77377557381988 4.9058094900101414
leaf_count=21 126 396 456 152 352 198 147 4908 21 48 177 231 283 1809 94 950 431 245 754 75 267 252 5289 1397 384 275 120776 667 46 172 114 10985 444 498373 239 296 66 518 911 272 9396 35 1828 155 142 204 160 1604 315 21 175 285 43 984 163 91 2580 75 715 76 139 116 258 246 40 166 188 3354 121
internal_value=-0.968706 -0.791894 -0.980588 -0.900159 -0.892296 -0.813331 -0.950634 -0.943922 -0.711238 -0.802184 -0.841538 -0.869155 -0.94906 -0.899258 -0.959172 -0.747726 -0.821781 -0.818944 -0.856385 -0.935025 -0.763861 -0.983259 -0.95223 -0.955141 -0.775249 -0.983629 -0.978294 -0.979531 -0.914756 -0.753757 -0.74623 -0.705472 -0.752872 -0.984979 -0.813146 -0.970873 -0.893657 -0.86593 -0.931179 -0.880253 -0.962804 -0.934332 -0.947976 -0.872453 -0.826296 -0.787785 -0.790476 -0.73998 -0.762314 -0.938686 -0.798128 -0.909411 -0.70199 -0.94559 -0.889733 -0.980107 -0.952783 -0.746928 -0.726768 -0.746472 -0.843529 -0.850676 -0.934134 -0.891068 -0.754399 -0.815469 -0.795165 -0.969691 -0.953998
internal_weight=20249.6 1275.1 18974.5 609.859 568.029 224.187 385.672 361.143 707.075 206.886 120.12 105.344 353.828 103.632 366.165 86.7661 35.0664 61.163 46.939 87.6369 118.843 18364.6 216.204 44.2684 75.8514 18148.4 3665.68 3649.72 32.1055 112.718 106.709 672.009 46.0391 14482.7 20.9005 201.574 38.1144 34.631 47.3744 20.1458 360.94 81.1926 75.7062 22.0326 32.5699 20.3489 19.5071 102.964 70.2489 44.1813 18.9556 34.718 625.97 42.9621 13.7014 3617.61 82.1796 57.8827 41.3946 5.48638 11.4953 12.1049 29.4639 9.26008 22.7293 17.6203 15.298 250.196 106.68
internal_count=677292 29268 648024 17917 16423 5431 12486 11548 12845 4875 3111 2901 11422 3039 12040 1764 867 1502 1257 2756 2530 630107 7020 1445 1666 623087 124693 124418 971 2332 2160 11978 950 498394 506 6768 1105 947 1479 568 11946 2550 2439 611 814 462 446 2046 1489 1399 442 1039 11028 1378 394 123447 2671 1174 790 111 299 320 925 267 471 429 354 8383 3475
is_linear=0
shrinkage=0.280822


Tree=1
num_leaves=70
num_cat=0
split_feature=23 12 46 46 42 41 42 48 11 48 31 11 42 12 9 42 41 31 31 0 46 27 34 12 17 41 41 21 42 42 21 48 12 9 33 33 31 21 31 23 46 46 21 27 12 46 12 46 12 19 12 53 19 9 34 34 19 42 27 41 56 14 31 8 23 33 34 30 31
split_gain=269342 39656.9 28953.7 14095.7 12930 9491.7 7588.81 4940.45 4917.22 2975.83 2839.96 2531.66 2369.71 2224.07 2020.06 1705.86 1733.37 1359.96 2077.57 1231.92 1157.55 1063.43 1041.12 1026.22 1021.78 1002.64 971.72 887.021 864.932 6014.27 1009.2 1279.56 804.632 933.607 797.966 902.549 750.312 827.885 749.927 986.605 744.102 833.677 795.883 702.864 811.103 695.181 664.867 642.936 564.742 734.417 562.578 2025.96 555.271 521.041 496.821 469.144 450.669 448.741 445.261 409.361 392.24 389.514 373.622 372.465 371.567 367.293 357.436 355.876 348.002
threshold=1.2364192910143796 1246.0707256961671 138.53500000000003 246.92733110845299 0.50000128984010928 -0.70683993892407326 0.70736016079090247 1.0000000180025095e-35 9.5000000000000018 1.0000000180025095e-35 0.0023179819647714088 4.5000000000000009 -0.86323357409921375 148.79500000000004 32678.000000000004 -0.86323357409921375 -0.86602228983495377 0.0048430437778013988 0.0091230844533172761 107330.00000000001 1003.4644787735172 7.008765235457223 21.500000000000004 268.68500000000006 1.0803310052373389 -0.70683993892407326 0.9544485788669389 4.2269567718040832 0.70736016079090247 0.86169937851476253 4.6208018808523823 1.0000000180025095e-35 808.67500000000007 58144.500000000007 0.41862274615674128 0.10257114493689952 0.0091230844533172761 4.6208018808523823 0.011403125497377386 5.3375374550983281 7.7250000000000005 269.00689211749597 0.13990539586041764 17.00139840774909 719.91500000000008 246.92733110845299 1549.4025344931499 269.00689211749597 890.3220242083579 629.50000000000011 1064.4325168650323 1.5000000000000002 565.50000000000011 29550.500000000004 3.5000000000000004 2.5000000000000004 607.50000000000011 0.70678450095809187 13.994645770496975 0.25881904510252091 1.5000000000000002 84.727507691452971 0.0043371879945324158 596.00000000000011 7.8520174679606791 12.258323702915193 21.500000000000004 545.55246521384447 1.0000000180025095e-35
decision_type=2 2 2 2 2 2 2 2 2 2 2 2 2 2 2 2 2 2 2 2 2 2 2 2 2 2 2 2 2 2 2 2 2 2 2 2 2 2 2 2 2 2 2 2 2 2 2 2 2 2 2 2 2 2 2 2 2 2 2 2 2 2 2 2 2 2 2 2 2
left_child=1 3 4 28 7 14 27 -2 12 -6 21 13 53 34 52 47 45 -9 -19 -10 40 46 36 -12 48 -25 -18 54 55 -30 50 -32 33 -24 35 -8 -15 -38 43 -40 -14 42 -42 44 67 -17 -11 -4 -20 59 -31 -52 63 -7 57 -1 -21 -5 -44 -50 -46 -47 -37 -3 -48 -62 -33 -27 -23
right_child=2 5 15 6 9 8 11 17 19 10 23 -13 20 22 -16 16 26 18 24 56 -22 68 32 25 -26 38 -28 -29 29 30 31 66 -34 -35 -36 62 37 -39 39 -41 41 -43 58 -45 60 61 64 -49 49 -51 51 -53 -54 -55 -56 -57 -58 -59 -60 -61 65 -63 -64 -65 -66 -67 -68 -69 -70
leaf_value=0.093648970473906787 0.12227782394765839 0.17240152875701797 0.0025204743097030284 0.10506735246995759 0.10578241934953399 -0.00059211509071630517 0.0083168110390942126 -0.0022142747365524545 0.1788241919460819 0.0076268276891183094 0.0039637152733380098 -0.0030475610929593944 0.012837991086926601 0.097393517676412716 0.12158420613058846 0.0075961806093856193 0.093938634594907686 0.12740658837484031 0.004115427778116759 0.16750352451131797 0.058431854832867468 0.040510269926788661 0.0020674696768975846 0.0086434405993787242 0.11910205494209809 0.078822286976219472 0.033025039337375238 0.059157769998214885 0.09450330704245577 -0.004662005407494247 0.10656860605764851 0.039536143874717614 0.088485471030717314 0.10370958270658137 0.0093938173135547504 0.1035003805999585 -0.0076033876087055812 0.094392674710107718 0.0068707341060183459 0.081751641198688288 -0.0073809053168054301 0.10839833727368706 0.15103224391488365 0.096062722607712758 0.098358323501882686 0.081789267019429249 0.11090257504376504 0.069117122798365654 0.10152544224601276 0.0099997616517073385 0.15714892092115237 -0.0037524400171845681 -0.0020757059298800963 0.13865509777071836 0.0034763852327301947 -0.0070364807815865016 -0.0037190700382518189 0.022972317785362236 0.076738666838471525 0.020126938028084414 0.077180811979882843 0.028025730233222183 -0.0074790872300286417 0.018199603568669794 -0.0074239894738724228 0.013624001245505 -0.0031388636668899911 0.028657119923688319 0.089212942560127517
leaf_weight=2.4148806184530249 20.475140117108822 1.5992088373750442 14.451702801510693 4.2225857675075558 86.026106439530849 12.633022161200641 10.95437314361334 275.27622452937067 2.1647278144955626 73.595800425857306 11.351571420207618 31.961205124855042 3.5562888458371154 107.6332839243114 7.9441737290471783 14.316160444170235 1674.6355347521603 9.7380364872515184 89.782550249248743 0.8169001210480954 19.697985885664821 15.921025816351177 21.027969297021631 11.648108219727872 5.0121924802660933 10.196480635553597 13.851303914561866 16.878058463335037 32.80566268786788 3477.567323749885 8.8520197421312314 15.6467027682811 16.991842519491911 6.1008810102939597 39.284549918025732 15.609044192358853 8.0531080886721629 8.6289707478135806 17.057560784742236 20.059354659169912 1.8428331296890963 133.8347469959408 54.839144183322787 103.9666399769485 41.461776297539473 26.163857519626617 5.3627866059541693 16.004105923697352 10.465072384104131 20.637642441317439 5.1769419424235847 19.555033916607499 88.678072616457939 1.5742474738508452 365.81126972660422 14002.583273671567 30.895139688625932 19.920428570359945 4.6185777951031914 4.6963237766176453 21.475102858617905 9.6932453978806716 1.7665200140327204 1.6824792325496671 1.8726242575794456 6.1307472325861445 29.945425035431981 27.146176049485803 14.922187119722365
leaf_count=17 188 30 451 33 680 422 307 9160 32 2133 352 812 119 961 122 387 12738 91 2865 13 319 310 549 356 51 147 248 254 232 120396 82 345 194 97 1049 165 192 64 464 256 64 1156 892 868 414 235 74 200 149 566 105 675 3037 29 11774 495112 1035 560 71 119 274 136 46 55 56 131 943 653 180
internal_value=0.00628045 -0.00346615 0.0742221 -0.00496142 0.0409037 0.0710934 0.0275018 0.0125432 0.0936506 0.067318 0.058657 0.0574059 0.105516 0.0655914 0.0109226 0.0912524 0.0921932 0.00713411 0.0254714 0.0121718 0.111409 0.0279441 0.0796682 0.0713352 0.0178606 0.0742858 0.0934392 0.00780048 -0.00620658 -0.0030366 -0.00393654 0.026984 0.0494398 0.0249578 0.0305167 0.0597912 0.0903911 0.0451757 0.0773744 0.0473522 0.116657 0.118548 0.140685 0.0826684 0.0695732 0.0502488 0.014142 0.0375297 0.0138101 0.038114 -0.00441731 0.0299747 0.00134981 0.0149189 0.00557599 -0.00701905 0.000740744 0.0373712 0.145276 0.0763465 0.0842695 0.0672693 0.0922155 0.0936616 0.0803001 0.0630787 0.0115106 0.0423742 0.0640966
internal_weight=21309.2 18635.8 2673.39 18269.4 904.277 366.378 674.844 436.083 266.474 468.194 382.168 268.012 232.597 236.051 99.9039 1769.12 1738.66 415.608 140.332 33.8768 218.39 111.674 168.436 270.494 130.594 259.142 1688.49 406.832 17594.5 3589.55 3556.74 54.4441 44.1207 27.1289 67.6145 28.3299 124.315 16.6821 247.494 37.1169 198.692 195.135 61.3006 210.377 106.41 50.1733 80.8312 30.4558 125.582 35.799 3502.3 24.732 91.9598 14.2073 389.954 14005 31.712 24.143 59.4577 15.1614 69.0676 35.8571 17.3756 3.28169 7.23541 27.6059 45.5921 37.3427 30.8432
internal_count=677292 642360 34932 634964 20537 7396 17057 13189 4152 7348 6668 4436 3072 3624 3244 14395 13744 13001 3841 1080 2621 2753 2057 3915 3750 3563 12986 12621 617907 122778 122546 1370 840 646 1567 518 1217 256 3207 720 2302 2183 1027 2487 1619 758 2263 651 3699 834 121176 780 3122 451 12367 495129 1048 593 963 268 819 371 211 85 130 405 1288 800 490
is_linear=0
shrinkage=0.00723812


Tree=2
num_leaves=70
num_cat=0
split_feature=2 46 46 42 42 42 42 41 19 21 26 2 46 34 45 2 2 42 41 17 45 2 17 41 39 41 28 14 2 2 21 51 9 19 45 41 9 46 2 34 45 45 17 46 34 9 53 21 45 53 34 21 28 26 2 45 34 26 28 23 9 45 2 34 33 28 9 9 51
split_gain=197810 27381.7 12039.1 7646.57 7250.64 1687.41 4601.92 1566.94 1272.41 1268.39 1076.26 963.789 953.604 863.984 769.335 2069.64 1006.51 742.449 764.124 715.687 682.355 2625.31 833.067 675.432 663.836 1050.61 898.575 649.219 633.242 611.941 607.891 584.226 1390.16 1153.98 563.006 561.436 551.76 539.691 533.489 530.033 526.335 503.435 483.225 449.735 435.637 424.295 529.996 416.748 587.926 405.932 404.925 394.416 390.653 546.219 386.807 1751.85 364.619 356.891 483.818 350.383 347.099 331.175 674.435 403.638 327.933 325.59 324.984 314.118 304.581
threshold=235.70500000000001 246.92733110845299 135.94500000000002 0.50000128984010928 0.70736016079090247 0.70736016079090247 0.86169937851476253 -0.70683993892407326 610.50000000000011 3.889228290097662 0.008616716961333969 676.26694904716931 165.74634849454603 22.500000000000004 3.711496736512367 99.405000000000015 6.7750000000000012 -0.86323357409921375 -0.70683993892407326 1.2370789028511939 3.5998514472414729 36.455000000000005 1.2370789028511939 0.25881904510252091 1.0000000180025095e-35 -0.49997665491204885 91.622558445752574 83.135654010506912 676.26694904716931 446.67070584043762 3.9796963298826591 92.016371797138021 10364.500000000002 541.50000000000011 5.4264247002849109 0.86592370632738891 4683.5000000000009 269.00689211749597 7.245000000000001 6.5000000000000009 4.9274348275139728 5.4264247002849109 1.0501944458615784 269.00689211749597 20.500000000000004 23990.500000000004 1.0000000180025095e-35 3.4600376740282894 4.4124952152769854 1.0000000180025095e-35 2.5000000000000004 25.417093672420883 97.751444423871718 0.0049133062111208674 104.41500000000001 4.6489478071887698 21.500000000000004 0.006062942676346863 93.773498503257414 4.5494538861886733 20364.500000000004 3.3821844280530287 9.2350000000000012 21.500000000000004 2.8743685847979625 63.860070340683556 6328.5000000000009 14738.210434235998 72.078412344352316
decision_type=2 2 2 2 2 2 2 2 2 2 2 2 2 2 2 2 2 2 2 2 2 2 2 2 2 2 2 2 2 2 2 2 2 2 2 2 2 2 2 2 2 2 2 2 2 2 2 2 2 2 2 2 2 2 2 2 2 2 2 2 2 2 2 2 2 2 2 2 2
left_child=1 5 3 8 9 50 -7 44 11 20 14 41 31 24 16 -16 -6 43 27 30 21 22 38 51 25 28 29 66 56 64 -14 -8 33 49 -10 -20 -15 -37 -3 65 -11 -2 -29 -4 -5 -41 68 -35 -49 61 -1 -13 -43 -54 -22 -56 -9 -36 59 -59 -31 62 -33 -64 -26 -40 -19 -61 -47
right_child=2 4 17 7 10 6 12 13 34 40 -12 23 19 36 15 -17 -18 18 35 -21 54 -23 -24 -25 26 -27 -28 42 -30 60 -32 32 -34 47 57 37 -38 -39 39 45 -42 52 -44 -45 -46 46 -48 48 -50 -51 -52 -53 53 -55 55 -57 -58 58 -60 67 -62 -63 63 -65 -66 -67 -68 -69 -70
leaf_value=0.10423065732870601 0.10234817332886366 -0.009146367744824805 0.0041360691133636674 0.18015152922135419 0.014922479281591159 0.098450056825607327 -0.0072746166101850911 0.11985350639194361 0.098853313814877414 0.1153128014608234 0.010728137083178378 0.13866710481325187 0.013998687910552282 0.079572273226570789 0.019977061596448398 0.0955527422737346 0.10208014687390757 0.026216097334498045 0.10247560766236739 0.25313200091849558 -0.0069905736276017639 0.16755803314760534 0.13872116277058602 1.0516627158526527e-05 0.072005113320946362 0.11460286998967777 0.10033951293056473 -0.0059776856831490095 0.097229044595959324 0.090663012839556356 0.090679895013704742 -0.0054466232981271135 0.23968385578918006 -0.0020439900932034257 -0.0050764619857217794 0.0041164556361818891 0.012581424175437854 0.090704751956400598 0.1030837191190813 6.3788908882646533e-05 0.036019915710820964 0.0043708508828135435 0.077333719580424981 0.083449753287604178 -0.0077041651640596572 0.021938658173015251 0.1348086496436029 0.13133958755109004 0.016761577113167864 0.15981641097751226 -0.010704172674614224 0.046523758926144021 -0.011483270234189876 0.10662923998433693 0.17946469106696986 0.0024521968695895378 0.024088800493583074 -0.0066050556068985881 0.070113691296019479 -0.0023903000083397227 0.037887565178353962 0.010373134120208349 0.28305114958372951 0.064912237312995447 0.0083937912370401508 0.0014085446966662989 0.095810314675806182 0.072332718946195154 0.22616227738850997
leaf_weight=3.8185033947229376 10.098413359373806 74.857770450413227 15.645420225337146 1.6177682802081133 17.648569576442242 55.927413947880268 2709.5983441639692 5.7347831875085822 8.0077906697988492 23.096294119954109 25.736508520320058 24.296699441969398 129.45008644461632 29.480012530460954 71.509078748524189 123.23334043473005 266.07544253580272 9.2991085145622474 2255.1470687557012 1.6775309313088644 167.25304305925965 15.909075357019899 6.9604507125914088 7.6948521323502055 13.813969762995837 197.88687375187874 96.482193266972899 18.730067139491439 45.110893744975328 53.675180125981569 14.330865992233155 3.7145664319396072 3.1000134646892539 660.55100778676569 193.92617436498404 13.994153900071977 32.041558461263776 25.135680489242077 16.483276642858986 63.413076668977737 19.121214101091027 60.387116016820073 16.207365663722157 20.791796647012234 29.046385606750846 32.001544885337353 6.9985157884657374 6.3637239988893262 45.667231667786837 5.8461514096707097 13726.777103241533 7.6417412478476754 7.9892988372594145 12.575151937082408 8.0401325076818448 52.594073075801134 36.671169457957149 58.867699783295393 19.845264127478004 12.109028736129405 21.95488240942359 10.195168076083062 2.721289312466979 1.7447205968201158 37.796185497194529 5.1673008091747752 85.889327989891171 16.709328092634678 0.92897088080644508
leaf_count=20 52 2479 484 14 457 278 95028 34 40 161 576 237 4197 366 1472 1015 2138 134 12254 25 5546 128 95 227 203 1125 646 374 399 590 186 131 37 22856 6543 311 710 175 200 2036 377 1997 170 198 929 976 105 52 1381 74 498477 146 281 107 69 1666 789 1961 336 328 363 343 59 56 1007 165 601 290 10
internal_value=0.00905681 -0.00561007 0.0860219 0.0541742 0.0513389 -0.00887679 -0.00212468 0.080079 0.0187828 0.020858 0.0811308 0.0480186 -0.00368964 0.0842605 0.0849172 0.0678045 0.0966598 0.0995 0.100253 0.0243358 0.0153695 0.0292785 0.0186331 0.0940091 0.0890407 0.100342 0.0746187 0.0738945 0.0680868 0.0551082 0.0216482 -0.00487151 0.00392872 0.00293341 0.00643536 0.101747 0.0446917 0.0597497 0.0144434 0.0285717 0.079419 0.0279899 0.0326781 0.0494076 0.00225851 0.0180339 0.046563 0.000354431 0.0307999 0.0787682 -0.0106721 0.116645 0.0187011 0.0607538 0.00177468 0.0259517 0.0370674 0.00397684 0.0203039 0.0090229 0.0753512 0.0529042 0.105818 0.198192 0.0254328 0.0788341 0.0890162 0.0409414 0.0277701
internal_weight=21880.8 18378.5 3502.3 1041.46 997.028 17381.5 3650.89 601.312 440.149 492.825 504.203 130.683 3594.96 570.648 478.466 194.742 283.724 2460.84 2424.4 145.458 450.607 222.72 206.811 39.6333 509.126 285.404 223.722 130.126 87.5168 127.24 143.781 3449.5 739.904 736.804 309.465 2294.28 61.5216 39.1298 199.85 124.993 42.2175 91.05 34.9374 36.4372 30.6642 103.342 39.929 712.582 52.031 24.2219 13730.6 31.9384 80.9516 20.5645 227.887 60.6342 42.406 301.457 107.531 87.6861 75.6301 18.3757 8.18058 4.46601 51.6102 21.6506 95.1884 28.8184 32.9305
internal_count=677292 642871 34421 19720 19671 623200 124703 7175 12545 14013 5658 3047 124425 6232 5082 2487 2595 14701 14019 4408 13475 6194 6066 610 5156 2347 2809 1279 1222 2163 4383 120017 24989 24952 9498 12740 1076 486 5971 3492 538 2437 544 682 943 3127 1091 24289 1433 663 498497 383 2385 388 7281 1735 823 9458 2915 2579 953 589 246 115 1210 365 735 618 986
is_linear=0
shrinkage=0.0111744


Tree=3
num_leaves=70
num_cat=0
split_feature=2 12 46 46 11 42 42 48 12 41 29 42 41 31 49 47 46 47 29 42 42 2 9 46 2 28 31 11 12 29 28 29 28 28 2 30 28 28 23 41 2 2 9 34 42 46 56 49 2 31 46 34 31 31 41 12 48 46 28 41 42 42 34 29 29 18 17 2 41
split_gain=154032 24822.8 7895.68 7058.04 5455.25 4807.71 3042.54 2156.49 2142.52 1954.57 1457.04 1233.92 973.738 969.267 2098.38 849.239 702.065 852.493 705.872 681.002 3151.28 679.075 619.192 583.824 595.275 542.196 507.971 697.381 506.503 458.856 7097.98 1072.49 970.447 861.281 719.79 6744.38 630.52 823.561 625.652 410.324 399.667 396.646 382.361 367.491 367.397 654.795 350.719 345.045 749.556 562.188 314.59 309.008 300.899 292.019 278.209 319.256 274.81 262.397 256.973 246.374 521.603 504.992 288.443 243.26 369.449 237.002 229.927 226.047 220.359
threshold=235.70500000000001 1064.4325168650323 246.92733110845299 138.53500000000003 7.5000000000000009 0.50000128984010928 0.50000128984010928 1.0000000180025095e-35 2519.0266388084979 -0.70683993892407326 46.100670324410594 -0.70291000425496786 -0.70683993892407326 0.0048846761371278526 1.0000000180025095e-35 0.95064902346257896 7.8750000000000009 10.798615491542849 137.04975136107001 0.70736016079090247 0.86169937851476253 253.69500000000002 28347.000000000004 246.92733110845299 8.1604251102710226 1.0000000180025095e-35 0.0091230844533172761 3.5000000000000004 141.12500000000003 45.308156939234962 63.939280579663915 24.582947718782055 55.559712946472018 55.355618226390767 22.645000000000003 473.02368341621178 1.0000000180025095e-35 51.915940736477872 0.63048949319057035 -0.9656127889714452 568.18000000000018 676.26694904716931 33653.000000000007 20.500000000000004 -0.70291000425496786 269.00689211749597 1.5000000000000002 1.0000000180025095e-35 21.97089451677731 0.0030428786917829024 7.7250000000000005 2.5000000000000004 0.0018215006571150598 0.0091230844533172761 0.86592370632738891 890.3220242083579 1.0000000180025095e-35 24.205000000000002 64.551118728267099 0.86592370632738891 0.70736016079090247 0.86169937851476253 21.500000000000004 46.100670324410594 24.582947718782055 3730.1088198995817 1.1450000000000002 25.995000000000001 0.25881904510252091
decision_type=2 2 2 2 2 2 2 2 2 2 2 2 2 2 2 2 2 2 2 2 2 2 2 2 2 2 2 2 2 2 2 2 2 2 2 2 2 2 2 2 2 2 2 2 2 2 2 2 2 2 2 2 2 2 2 2 2 2 2 2 2 2 2 2 2 2 2 2 2
left_child=1 2 19 5 9 7 15 -2 -6 22 25 -11 43 -9 21 63 -14 18 58 51 -21 -15 -3 24 -13 -8 27 28 -12 30 31 34 33 -33 35 36 -22 -38 -32 -5 -20 -16 -43 -7 45 56 -19 -27 -49 -50 -26 -1 -30 -25 -46 -56 -41 -48 -18 60 -52 -62 -63 64 -4 -10 -39 -64 -44
right_child=3 4 6 39 8 12 10 13 65 11 26 23 16 14 41 -17 17 46 40 20 29 -23 -24 53 50 47 -28 -29 52 -31 38 32 -34 -35 -36 -37 37 66 -40 44 -42 42 68 -45 54 -47 57 48 49 -51 59 -53 -54 -55 55 -57 -58 -59 -60 -61 61 62 67 -65 -66 -67 -68 -69 -70
leaf_value=0.064041628488589991 0.081357221801175036 0.0055047796939846037 0.0069901166017908162 0.029792189625121063 -0.007286784512247518 0.096522372654031074 0.015532261774718354 -0.0015720814203060698 0.093582588190372962 0.011520731672865256 0.003120432280189221 -0.0050992525577396941 0.024275687277459553 -0.0064717789843312364 -0.006243949419700418 0.089396284303684875 0.035052678962658866 0.065165731148405584 -0.0027720536549015089 0.062619281039882221 -0.0067024953600803598 0.088212423795159672 0.067765244758035734 0.070077989893931519 0.016224997077649492 0.070407309570770141 -0.0091248907380617542 -0.0010137162795647965 0.029819470772327522 -0.0071273664798994722 0.26175829891356062 0.17569464112213662 0.23236070653949353 -0.0067233473640696973 -0.0071526535839482059 0.26366516023271741 0.26583143643020851 0.023635486949460084 0.13847062573912314 0.1175694607180619 0.046452653149363192 0.0034545808785992858 0.067256085657879203 -0.0054906132542295264 0.062598915313262102 0.059040797285110455 0.05793603131604861 0.074643880947992805 -0.0063436550114175259 0.069430420039912497 0.17742902871263921 -0.0085118929875029233 0.063011636765552215 -0.0091639392220732481 0.011970703967928053 0.060843647313043113 -0.0042112655278331588 0.027894822569524011 0.062511961736501587 0.017669280753528159 0.056042517919828339 0.13889324097425865 0.12660298890339314 -0.0033774847196395975 0.063567434553419316 0.040094563456525435 0.203904324741642 0.084468685340754246 -0.0091297729428890528
leaf_weight=4.4622371345758429 33.820915471762419 50.4470155518502 72.6709861215204 30.93369684740901 141.24685170874 2.9473911225795737 23.197037750855088 260.10524776950479 18.931968729943041 24.454880930483341 22.602607451379299 4.4232995156198731 61.011805582791567 6.7260006554424754 75.290887620300055 8.4389756917953473 43.773169782012701 370.24472385458648 38.273112470284104 53.00521220266819 114.81411697529256 40.409646419808269 16.02456172555685 276.36895122937858 3.4199063181877127 105.12694579921663 34.354696625843644 44.748468497768044 35.078470880165696 2502.9575832542032 6.8211952112615091 2.6292636021971685 2.4468278922140589 7.7828120831400156 771.07196848839521 7.7983553893864146 1.3234654292464245 9.0864757560193503 5.886937577277422 1.5010248385369802 18.687513239681721 24.928461352363229 17.011625824496154 29.677317535504699 2854.2591882795095 57.543307542800903 56.746012488380075 33.639584209769964 24.24994033202529 10.756876513361929 6.8148137405514708 13215.705128615722 51.258159954100847 3.5837441850453606 17.873878322541714 23.672697171568871 21.362032905220985 36.389977881684899 64.024971265345812 2.5958080291748038 17.337455362081528 17.994503170251846 14.119892051443456 256.50968879088759 9.991588441655038 9.5059035047888738 0.56342785991728384 31.557100344449282 3.4562419131398192
leaf_count=19 182 1669 2180 367 4833 18 481 8614 179 697 517 130 999 197 2520 48 612 2208 1028 221 4118 255 214 1550 92 580 904 1065 567 89219 106 28 34 278 27595 129 21 310 50 14 197 607 154 960 12748 380 481 171 575 49 75 493515 394 82 299 143 572 476 389 63 66 154 154 8299 101 181 8 345 82
internal_value=0.00665542 -0.00439551 -0.00635281 0.0543271 0.0490348 0.036273 0.0216887 0.0142811 0.00662876 0.064372 0.0385872 0.0716095 0.0503416 0.00897785 0.0253286 0.00297113 0.052547 0.0552925 0.0382365 -0.00758253 -0.00415126 0.0747011 0.0205234 0.0754941 0.0938069 0.0551752 0.0212091 0.0279906 0.0399043 -0.00518234 5.10696e-05 -0.00278702 0.076322 0.039457 -0.00391242 0.0147891 -0.000659355 0.0625105 0.204807 0.0614325 0.0133813 0.00604034 0.0264129 0.00374955 0.0617612 0.0433449 0.0613557 0.0604654 0.0452309 0.0169508 0.09847 -0.00848735 0.0495317 0.069063 0.0622724 0.0398279 0.00382808 0.0462036 0.0513668 0.101578 0.104054 0.0978596 0.109234 0.000817945 0.0138366 0.0757266 0.03437 0.0975202 0.054355
internal_weight=22268.5 18077.8 17439 4190.67 638.827 1183.53 732.624 461.749 169.685 469.142 385.013 402.67 721.776 427.928 167.823 347.611 689.151 628.139 164.759 16706.4 3486.19 47.1356 66.4716 378.215 98.2628 196.97 188.042 153.688 108.939 3433.18 930.225 917.517 12.8589 10.4121 904.658 133.586 125.787 10.9734 12.7081 3007.15 56.9606 120.687 45.3963 32.6247 2976.21 80.4064 463.381 173.773 68.6464 35.0068 93.8395 13220.2 86.3366 279.953 2895.81 41.5466 22.8631 93.136 107.798 90.4196 87.8238 81.009 63.6715 339.172 82.6626 28.4379 9.6499 45.677 20.4679
internal_count=676568 642066 631582 34502 10484 19979 15931 12611 5193 5291 5303 3408 7368 12429 3815 10628 6390 5391 2226 615651 122117 452 1883 2711 1079 1856 3447 2543 1478 121896 32677 32521 340 306 32181 4586 4457 339 156 14523 1225 3363 843 978 14156 966 3165 1375 795 624 949 493534 961 1632 13190 442 586 957 1001 857 794 719 653 10580 2281 360 318 499 236
is_linear=0
shrinkage=0.00872709


Tree=4
num_leaves=70
num_cat=0
split_feature=2 12 12 48 11 28 12 11 41 27 34 39 12 41 31 12 45 19 45 2 28 27 31 31 41 2 11 11 53 49 27 47 2 45 12 2 19 27 28 26 37 41 47 28 45 47 27 45 2 45 53 31 26 41 19 14 34 2 45 47 6 47 47 45 12 2 45 15 41
split_gain=125495 20943.4 4317.74 3900.3 3737.29 2994.88 1800.07 5418.2 1626.55 1284.28 1276.99 3789.89 2498.83 1105.13 853.751 810.95 802.748 640.114 593.748 2365.36 994.239 2019.77 589.425 579.316 642.017 520.391 477.379 446.37 361.971 358.235 445.091 348.343 342.442 329.139 312.283 276.624 267.55 266.669 258.997 554.5 244.77 242.159 275.676 234.543 212.16 199.898 198.093 193.934 538.155 203.481 189.484 167.912 163.206 156.442 150.254 265.511 500.876 147.29 4257.65 213.467 226.483 146.816 140.733 171.023 139.846 129.468 1280.96 129.084 138.981
threshold=235.70500000000001 1064.4325168650323 746.5200000000001 1.0000000180025095e-35 8.5000000000000018 95.372942029915137 615.2650000000001 3.5000000000000004 -0.70683993892407326 11.808422550325073 3.5000000000000004 1.0000000180025095e-35 275.06500000000005 -0.86602228983495377 0.0091230844533172761 2519.0266388084979 5.4264247002849109 651.50000000000011 3.4050233727126682 29.345000000000002 64.321492077042066 7.008765235457223 0.0091230844533172761 0.0091230844533172761 -0.70683993892407326 253.69500000000002 4.5000000000000009 10.500000000000002 1.5000000000000002 1.0000000180025095e-35 2.0007569758523278 0.64263711429070702 568.18000000000018 3.0994163594333624 1773.2450000000001 6.7750000000000012 608.50000000000011 4.5414979907162847 46.365074739286889 1.0000000180025095e-35 11.500000000000002 0.86592370632738891 4.6675070141264436 119.67289825578335 6.2598309938192509 0.018213006464556803 33.031411275997918 3.7267771698747123 108.79500000000002 4.8726651409173725 1.0000000180025095e-35 0.0029333310560259885 1.0000000180025095e-35 -0.69242557533438387 671.50000000000011 83.469038765486857 8.5000000000000018 148.33500000000004 4.9866499307628898 0.87098377295038321 36.80236113048155 0.42926030699826784 0.13150829142250173 3.9868301292209298 2519.0266388084979 144.78500000000003 4.9646262583905783 52.048899599514804 -0.69242557533438387
decision_type=2 2 2 2 2 2 2 2 2 2 2 2 2 2 2 2 2 2 2 2 2 2 2 2 2 2 2 2 2 2 2 2 2 2 2 2 2 2 2 2 2 2 2 2 2 2 2 2 2 2 2 2 2 2 2 2 2 2 2 2 2 2 2 2 2 2 2 2 2
left_child=1 6 3 -2 8 16 10 23 28 -7 11 61 18 17 47 -6 -5 37 19 20 21 29 35 24 -8 -11 36 41 34 -13 -31 -26 38 -32 50 -10 53 51 39 -18 -17 43 -43 54 -34 -36 -40 -14 -49 -50 -3 -4 -37 -9 -15 -56 -57 -12 59 -59 -61 -1 63 -54 -29 -20 -67 68 -38
right_child=2 4 13 5 15 9 7 26 22 25 57 12 14 27 -16 40 32 -19 65 -21 -22 -23 -24 -25 31 -27 -28 64 -30 30 33 -33 44 -35 45 52 67 -39 46 -41 -42 42 -44 -45 -46 -47 -48 48 49 -51 -52 -53 62 -55 55 56 -58 58 -60 60 -62 -63 -64 -65 -66 66 -68 -69 -70
leaf_value=0.061019462163606937 0.048193287442731554 0.097791831915761976 -0.00244179014151205 0.057163107193285614 -0.0077738583197701459 -0.0081888970736152152 0.0084077520406252767 -0.0039769145294757998 0.0139294655398181 0.00092378159361238953 -0.0074520750246619694 -0.0045693837799367018 0.052936923107884143 0.047902731850825629 -0.008199701219910609 0.067255368315703945 0.0027865889729710275 0.0029260168068581446 -0.0074786604743309155 0.091625286536890713 -0.0078439990702151297 0.071967400234496881 -0.0082750113796356307 -0.008226964374835272 0.045216307252408112 0.048914926289360325 -0.0074902407885993616 -0.0084849988425564141 -0.0047945919520050078 0.003790736926364007 0.065765873353403531 0.071312623650528831 0.077300827331519217 -0.0081456017423973855 0.00025094797102079205 0.027559114886274039 -0.0066208119958615121 0.046419846837472085 -0.003084742040742312 0.058556191106534081 -0.0010607730058622862 0.043908812185304819 0.0036495546326219628 -0.0029210780021009862 0.017522842269225087 0.065068898188218538 0.033131519368203792 -0.0064123900350400538 0.062095355372582144 0.016936153377134902 0.0056198447366694656 0.05486429706308734 0.050253362189016521 0.05356169059556759 0.045592773523858349 0.047776886087580184 0.0022707694082050559 0.066219723957883628 -0.0077949956886661604 0.18110531429188995 0.096215946038406955 0.091361692149505569 0.056992178163473663 0.019302713070852722 0.041465275028171565 0.063328879537193281 -0.007569091213531616 -0.0056951519681310457 0.029360615330351947
leaf_weight=22.336025916039944 398.40722411125898 1.4786302000284219 13.457141522318127 18.146935611963272 116.62945139594376 31.787027552723885 22.859157955273986 3.8140133321285274 11.384066633880137 15.264870036393402 13060.539061052725 122.92035090737045 52.805712992325425 3108.9481464512646 26.474974201992154 13.133017763495447 49.761659152805805 55.538849046453834 1486.8545901682228 18.135591063648462 394.04890144057572 31.576342677697539 10.206510303542016 12.583152046427129 100.39146036282182 211.09936027042568 583.61530113779008 11.983930895105006 37.248054403811693 42.266435459256172 16.15062978677452 47.551704831421375 4.029047328978776 4.9546377044171086 3.707096470519903 14.83162024617195 10.180343067273499 58.951714728027582 324.36164884828031 14.494068026542662 4.4090977776795617 28.678316390141845 17.109049426391721 5.8530387599021187 50.878172177821398 15.690247677266596 9.7902635652571899 16.162260452285409 23.14181882888079 8.6468234322965127 25.061775002628565 4.2226425744593135 118.99878511205316 13.481371650472282 292.91621311567724 34.116322729736567 27.530938101932406 14.077318396419289 687.6695727724582 2.3336675912141791 13.557783536612986 18.48104540631175 345.94808224402368 12.446979146450756 4.9926877543330184 17.898376166820526 154.83210597187281 31.460622388869524 20.08849879540503
leaf_count=99 1596 10 375 76 4160 1080 724 138 274 348 495629 4428 330 13360 899 122 1300 1311 54575 115 14547 277 285 401 1073 903 21505 246 1279 1429 180 399 22 178 104 200 360 511 9381 64 118 176 436 155 871 220 128 445 142 179 715 45 699 215 1437 140 512 67 25863 28 90 117 2108 190 29 82 5492 1083 493
internal_value=0.0057482 -0.0039511 0.0418005 0.0282223 0.0376437 0.0173164 -0.00573155 0.00555468 0.0461498 0.0390459 -0.00631966 -0.00104954 -0.00233049 0.0459803 0.031902 -0.000204855 0.00541759 0.0234448 -0.00423291 0.00232628 -0.000321624 0.0132831 0.0514209 0.0437322 0.0475608 0.0456792 -0.00501132 0.0468234 0.0135888 0.00333245 0.018659 0.0536089 0.00334475 0.0484151 0.0284942 0.052631 0.0132936 0.0383125 0.000783525 0.0153748 0.0500892 0.0470195 0.0288712 0.0472589 0.021924 0.0526919 -0.00202245 0.0424398 0.0308695 0.0498233 0.0107929 0.011264 0.0535256 0.0408736 0.0473438 0.042441 0.0274593 -0.00725972 -0.00375877 0.0888264 0.108793 0.0747787 0.0543316 0.0473249 0.00621607 -0.00672312 -0.000218925 0.00555961 0.0172581
internal_weight=22605.4 17813.1 4792.32 1128.02 731.173 729.613 17081.9 846.026 597.002 258.151 16235.9 2457.69 2416.87 3664.3 127.232 134.172 471.462 132.17 2289.64 630.053 611.917 217.868 513.816 183.385 170.802 226.364 662.64 3532.13 83.1858 186.292 63.3717 147.943 453.315 21.1053 45.9377 503.61 79.0248 76.6315 398.408 64.2557 17.5421 3515.15 45.7874 3469.36 54.9072 19.3973 334.152 100.757 47.9509 31.7886 26.5404 17.6798 492.225 17.2954 3463.51 354.563 61.6473 13778.2 717.638 29.9688 15.8915 40.8171 477.394 131.446 16.9766 1659.59 172.73 61.7295 30.2688
internal_count=676568 642066 34502 15769 10484 14173 631582 26391 6084 2331 605191 83514 83298 18733 1995 4400 11842 2242 81303 21154 21039 6492 3756 2597 2196 1251 23794 16491 2328 6215 1787 1472 11766 358 1049 3471 2289 931 10873 1364 240 16216 612 15604 893 324 9509 1096 766 321 725 420 3197 353 15449 2089 652 521677 26048 185 118 216 2997 889 275 60149 5574 1936 853
is_linear=0
shrinkage=0.00793651


Tree=5
num_leaves=70
num_cat=0
split_feature=12 22 11 12 34 12 29 39 12 11 29 12 56 27 12 11 33 29 28 12 27 22 19 33 11 11 33 14 0 0 56 22 56 47 33 26 28 33 11 19 12 11 11 33 17 19 19 29 47 47 47 29 26 16 34 12 33 29 24 11 9 15 26 28 47 27 47 9 26
split_gain=103337 9308.52 8159.4 4061.21 3157.54 7782.63 2465.25 2271.26 1474.95 4366.74 935.898 922.692 818.933 748.339 693.761 2445.11 578.702 529.539 2644.64 1088.58 1106.77 513.948 476.227 384.094 355.935 316.339 240.408 223.74 203.973 193.882 187.881 174.878 173.681 231.272 160.204 1436.8 495.66 230.933 156.157 169.191 151.059 1802 545.096 463.62 305.301 223.207 143.588 140.832 135.639 135.559 128.944 128.437 300.323 127.323 125.333 125.227 144.546 124.597 124.046 121.484 119.057 116.271 116.184 138.762 112.974 111.762 111.669 102.76 99.5335
threshold=719.91500000000008 0.14184279607201747 7.5000000000000009 2519.0266388084979 3.5000000000000004 271.67500000000007 137.04975136107001 1.0000000180025095e-35 998.63000000000011 3.5000000000000004 137.04975136107001 259.49500000000006 1.5000000000000002 7.008765235457223 528.68000000000018 3.5000000000000004 12.258323702915193 49.961915746333638 63.895182462109503 24.875000000000004 2.0007569758523278 0.0020149852603366506 599.50000000000011 5.9918673194268868 2.5000000000000004 2.5000000000000004 0.34513347846478643 85.384867615085696 164686.00000000003 1808087.5000000002 1.5000000000000002 0.0021935674997821506 1.5000000000000002 9.9431605637183811 0.45842992721837955 1.0000000180025095e-35 48.300523087602471 0.377073220422037 1.5000000000000002 630.50000000000011 295.07500000000005 1.5000000000000002 2.5000000000000004 3.3399773312169159 1.2370789028511939 609.50000000000011 607.50000000000011 115.93606352307719 6.6180496104842748 0.0084673856401658015 19.238597394852061 46.100670324410594 0.00073372894307736837 178.55499449856919 9.5000000000000018 506.99500000000006 4.0381233099263243 121.6841942505378 0.12640942884995562 4.5000000000000009 53027.592206524409 52.048899599514804 1.0000000180025095e-35 48.745105676352928 16.318611934642565 4.0016786795893458 0.39210620417982683 61642.500000000007 1.0000000180025095e-35
decision_type=2 2 2 2 2 2 2 2 2 2 2 2 2 2 2 2 2 2 2 2 2 2 2 2 2 2 2 2 2 2 2 2 2 2 2 2 2 2 2 2 2 2 2 2 2 2 2 2 2 2 2 2 2 2 2 2 2 2 2 2 2 2 2 2 2 2 2 2 2
left_child=1 4 8 -4 5 7 11 -1 9 30 27 51 21 24 40 25 50 18 19 20 -9 53 28 -8 55 57 -22 -7 -11 49 31 -2 33 -25 35 -21 -36 58 -29 -40 -6 43 44 -42 45 48 65 -45 67 -23 -14 52 -3 -10 -30 56 68 66 -37 61 -47 -24 63 -51 -32 -27 -16 -43 -13
right_child=2 6 3 -5 14 10 23 17 12 22 -12 13 16 -15 15 -17 -18 -19 -20 34 26 29 59 32 -26 46 -28 38 54 -31 64 -33 -34 -35 36 37 -38 -39 39 -41 41 42 -44 47 -46 60 -48 -49 -50 62 -52 -53 -54 -55 -56 -57 -58 -59 -60 -61 -62 -63 -64 -65 -66 -67 -68 -69 -70
leaf_value=0.082711737347401851 0.001404407506091938 -0.01077875507976496 -0.00951110384211587 0.056175909228340863 -0.010028789476773457 0.05300811368272345 -0.0081620997411199336 0.0015313743208933976 0.00023624391506248485 0.11375817445239395 -0.0049788078818546171 0.018669576267618414 0.013743147868491786 0.055515620520987116 0.037385114991209681 -0.0093320003201139458 0.0064426231173354666 -0.010208473941638178 0.079512683586571348 -0.010156302017231276 0.082070295894833389 0.01314412478613055 0.022227005928275836 0.013492061722082529 -0.0010523400056961455 0.0084917509173610094 -0.010763175624923713 0.064568814993594098 0.075736760726050983 -0.011042429232303145 0.0066616206265442011 0.055402974848940578 -0.0014134185407338358 0.063573875207824093 0.089109387885020763 0.13063641286237337 -0.010040051256218799 0.002373879615775917 0.04723741428717796 -0.0011660028304764313 0.073485602548369403 0.013960279518905487 -0.0099861172077033798 0.041586446314450881 0.10122028587244139 -0.0033778677805385098 0.0094575001994061277 -0.0079833859030367278 0.063636844876448301 0.046274084181540755 0.056115526347159578 -0.0064429685781528358 0.084559287865945257 0.038180742014917154 0.018128436767227776 0.051998642389313246 0.0027451634451228228 0.024643826581987136 0.071167243703137498 -0.0093785943333549119 0.03550157971388257 -0.0072350257743767424 0.055284999941750138 -0.011085552903683201 0.042512358742107216 0.062772391243610781 0.062780530970195425 0.089739736887170338 0.055806931185981387
leaf_weight=32.521507315337658 6.6540332939475766 8.5849209595471603 391.82348483987153 140.02586193941534 10734.114735083655 334.08132315054536 151.41626434586942 59.205040980130434 22.182845447212458 3.6627247780561474 37.135073667392135 13.926430029794572 9.1697103343904001 350.85817789100111 30.640765555202961 592.3748659286648 67.264235028997064 1185.0368731003255 43.912250388413668 170.51797339320183 34.699562653899193 8.5093425139784795 31.009179601445794 23.27401165664196 37.986158195883036 6.4336469490081098 3.3484178707003585 9.7764765247702581 5.2274468541145351 4.8846268095076075 11.641861705109475 577.1264693364501 21.567355638369918 17.872516669332981 5.5593107454478732 4.8485716432333055 715.8148330822587 4.6140463240444651 12.678838446736334 21.027884213253856 35.560269920155406 35.925541691482067 2183.4481566827744 11.624257307499649 3.8795401789247981 108.78025678172708 51.842881862074137 13.644030053168533 8.8393121231347305 82.697088712826371 56.235653087496758 41.756362838670611 6.2496056482195845 17.212821874767542 19.839541390538216 36.88883807323873 17.943471226841211 21.23201353289187 18.987155120819807 155.18262195400894 9.366935318335889 27.862358454614878 3806.3321481458843 4.8896691109985104 56.178446950390935 11.78522292152047 50.250339956954122 2.065987652167677 18.377411141991615
leaf_count=148 170 310 13761 747 419743 1903 4901 2030 602 39 884 285 164 1545 477 22251 1231 44450 193 6399 255 156 658 404 1155 182 113 52 53 129 214 3181 507 103 27 45 27028 131 151 602 203 1028 84259 113 42 3690 1419 400 99 621 495 1433 31 275 454 353 442 362 111 5319 185 847 15700 117 575 170 255 43 148
internal_value=0.00724083 -0.00529794 0.0467597 0.00778358 -0.00692398 0.00345078 0.0308624 -0.00414012 0.0509275 0.0387501 0.0451674 0.0429244 0.0535972 0.047676 -0.00893287 0.000761934 0.0280077 -0.00539782 -2.71862e-05 -0.00346042 0.0298485 0.0544573 0.000851476 0.000861358 0.0256891 0.0354877 0.073897 0.0500998 0.0408675 0.0548366 0.0528706 0.0547877 0.0226471 0.0352584 -0.00698059 0.00133598 -0.00927458 0.0701997 0.0277459 0.0170465 -0.00949667 -0.00712962 -0.00858457 0.0491255 0.00953731 0.0073747 0.0183489 0.0148237 0.0267143 0.0549191 0.0501796 0.00295678 0.0294089 0.0168232 0.0301716 0.0373467 0.0265798 0.0472417 0.0833183 -0.00452053 -0.000291801 0.00828276 0.0550104 0.0430698 0.0363617 0.0436251 0.0531681 0.0181065 0.0398107
internal_weight=22857.9 17352.3 5505.61 531.849 16605.6 2693.77 746.702 2279.07 4973.76 894.385 414.7 532.571 4079.38 475.98 13911.8 764.56 132.67 2246.54 1061.51 1017.59 97.253 3946.71 242.784 214.13 125.122 172.185 38.048 377.565 28.7297 3907.31 651.601 583.781 62.7139 41.1465 920.342 198.968 721.374 28.4498 43.4832 33.7067 13147.2 2413.13 2352.31 60.8286 168.858 164.978 70.0618 25.2683 46.8308 3902.43 65.4054 56.5909 14.8345 39.3957 25.067 87.1362 50.2473 102.123 23.8357 214.054 118.147 58.8715 3893.92 87.5868 67.8203 18.2189 80.8911 37.9915 32.3038
internal_count=676568 631060 45508 14508 619443 84522 11617 80930 31000 11510 3592 5702 19490 3928 534921 25116 1890 80782 36332 36139 2398 17600 7370 5915 2383 2865 368 2708 546 16723 4140 3351 1014 507 33741 6686 27055 287 805 753 509805 90062 89346 716 5087 5045 1771 513 1170 16594 659 1774 341 877 507 1228 875 1094 156 6824 3875 1505 16438 738 789 352 732 1071 433
is_linear=0
shrinkage=0.0104694


Tree=6
num_leaves=70
num_cat=0
split_feature=2 46 42 46 42 42 42 31 47 46 2 45 47 45 2 29 27 45 21 31 49 2 45 2 46 47 29 47 26 33 42 42 42 33 45 47 46 46 0 42 27 27 29 42 42 45 2 42 47 33 45 45 16 27 29 34 45 21 45 11 27 11 23 2 33 11 33 45 31
split_gain=90394.7 16972.6 2708.68 2402.46 2141.21 1660.6 2218.24 1233.83 928.17 780.996 695.993 3098.51 552.527 527.409 4885.56 861.303 1908.01 662.973 455.646 441.013 506.801 395.739 423.316 1187.16 361.178 439.126 465.179 319.849 281.095 517.154 247.025 245.372 549.249 238.512 525.801 293.059 614.558 227.676 220.53 207.09 196.635 193.672 242.555 165.697 1102.64 157.816 272.248 156.364 155.765 143.47 189.422 138.719 137.331 136.969 385.549 134.431 131.167 190.589 130.838 127.882 127.228 138.195 126.873 118.713 118.36 118.131 114.038 111.112 105.855
threshold=235.70500000000001 231.45500000000001 0.25924191712685779 111.69500000000001 0.50000128984010928 0.70736016079090247 0.86169937851476253 0.0091230844533172761 11.261689394146424 6.6350000000000007 134.07000000000002 4.8912885357583624 0.97425270878029002 3.5822681468852378 35.275000000000013 45.308156939234962 4.0016786795893458 3.2396583448649916 3.9796963298826591 0.0051951240532406564 1.0000000180025095e-35 6.7750000000000012 3.5113961628185675 89.75500000000001 6.1810546066756773 10.798615491542849 121.6841942505378 0.37349275410128496 1.0000000180025095e-35 0.29501008160434233 -0.86323357409921375 -0.49960029902358827 -0.25922437915470481 0.30501041040409865 3.0994163594333624 0.68344512539488944 9.2950000000000017 246.92733110845299 107330.00000000001 0.4862670713315897 4.1795091641751982 6.0006168743109827 186.27250037133405 0.25874566245798325 0.0010331694883316286 4.0057865310952758 55.335000000000008 0.50000128984010928 26.985013547603476 2.0281282952697497 4.6245315382641907 4.5109144485530583 119.13299357614331 4.0016786795893458 121.6841942505378 2.5000000000000004 4.4999763215668915 2.6585175959519387 5.4264247002849109 7.5000000000000009 7.008765235457223 3.5000000000000004 6.3786094884786833 568.18000000000018 3.1599451604306341 1.5000000000000002 12.258323702915193 5.4264247002849109 0.0023600265643048245
decision_type=2 2 2 2 2 2 2 2 2 2 2 2 2 2 2 2 2 2 2 2 2 2 2 2 2 2 2 2 2 2 2 2 2 2 2 2 2 2 2 2 2 2 2 2 2 2 2 2 2 2 2 2 2 2 2 2 2 2 2 2 2 2 2 2 2 2 2 2 2
left_child=1 5 12 4 8 55 -7 21 67 -10 13 18 31 14 15 16 28 -18 -12 41 -21 -4 39 27 65 26 40 45 -8 -30 37 -3 -33 -17 35 -35 -37 -5 -38 -23 -26 -11 68 44 -34 46 -24 -41 -22 -15 -51 -20 62 54 -32 -1 -25 -58 -28 -27 61 -16 -44 -50 -13 -6 -65 -2 -43
right_child=3 2 7 30 24 6 10 -9 9 19 11 64 -14 49 60 33 17 -19 51 20 48 22 23 56 25 59 58 -29 29 -31 53 32 43 34 -36 36 38 -39 -40 47 -42 42 52 -45 -46 -47 -48 -49 63 50 -52 -53 -54 -55 -56 -57 57 -59 -60 -61 -62 -63 -64 66 -66 -67 -68 -69 -70
leaf_value=0.038554195129253309 0.049029252165808383 -0.0020190533588227864 0.0042518810878858565 -0.0017620913451432112 0.025635817695228984 0.041444089388924077 -0.0061818243330507977 -0.0095912179093329327 -0.0068686008555682672 -0.0002380293536221215 0.10223997941275131 -0.0060285942605482713 0.059036498588207996 -0.0081862880581020942 0.16165125629976718 -0.0081412223597614811 0.079725810109316522 -0.0094380799654918291 0.041169465284757879 0.054876413378644434 0.0021255393154174622 0.078074110100909741 0.0042279774173957473 0.046612493206095174 0.013371112068119903 0.041051723727307345 0.051228533035309831 0.05421730908423867 0.068355738795730855 -0.0065918941329552025 0.038647603933650597 0.081758305716003218 0.0032210703421924991 0.001929214995788931 -0.0058432486526382426 -0.0069618841428054461 0.14642991111003356 0.035190212933015101 0.058308391842186134 0.010285344566218425 0.042201708440739324 0.03991894083831718 -0.0048995837693535538 -0.0055363109070979809 0.082134396228124226 -0.0075722805876361175 0.055496808847272899 0.042840217018980026 -0.00096874523334094641 0.076372078507951441 0.0030411952707628674 0.08319223800909567 0.00148114075815376 0.041660573083085482 0.0047721611441484948 -0.0087510922662727957 0.013483629493189854 0.039513362124361406 -0.00080024727296876632 0.019401072759660666 0.093728464454937738 0.10224201012632519 0.057097852143714663 0.047334675016965755 0.011469103014591796 -0.0020228011687201657 0.01314340369260744 -0.0070973088973813681 0.093031389191991304
leaf_weight=5.0715663135051718 3.0274657905101767 231.14484555833042 31.777725875377655 21.137594629079103 26.478689132258296 98.538471519947052 140.20345600880682 52.504136415198445 68.341463332995772 47.10961377620697 21.886939972639084 233.41698353551328 16.184507481753826 1602.9848350267857 6.3134690783917886 908.42363402619958 40.779551483690739 8.5208818987011892 31.625216782093048 76.049358448013663 24.675404565408826 13.839567996561525 47.741043651476502 150.95109072327614 26.627116557210684 643.67049476876855 4.4026034027338019 11.222742568701504 13.122989660128949 19.110565345734358 337.08926191180944 9.1179920621216279 106.95541907474399 30.34630860388279 202.00951890088618 14.783377595245836 2.6947694234550026 42.301793145015836 22.020484240725636 12.825465636327861 80.691265501081944 9.5284032784402353 4.0351284109055987 50.096410498023033 17.40071539208293 60.205615801736712 10.71824551001191 478.10880802944303 8.3338565211743099 3.1785348597913972 45.341458601877093 8.4291081055998784 26.449473716318607 3988.1577409189194 31.035504935309291 12299.617387391627 29.438890390098095 124.426319334656 55.364698948338628 23.971117621287704 20.98941357806325 7.1855500489473343 9.0144714415073377 27.854582369327545 38.000977646559477 25.739128686487675 11.743231918662785 164.39232871495187 4.780010223388671
leaf_count=14 10 7279 839 621 328 286 5256 1501 2126 1416 134 8510 67 61383 59 34850 243 318 92 294 606 67 1003 478 454 3292 15 43 178 680 1413 46 3191 1046 7534 563 39 235 350 342 417 160 134 1619 88 1581 39 2388 246 45 1584 43 720 13192 408 496063 522 712 1366 288 119 44 116 245 1041 532 158 5522 43
internal_value=0.00616323 -0.00437512 0.0256842 0.0376022 0.0269731 -0.00713831 -0.00156871 0.0338251 0.0114443 0.0206725 -0.00280767 0.00981529 0.00634214 -0.00417041 -9.55423e-05 -0.00275576 0.0138725 0.0643144 0.0684958 0.0282145 0.0382862 0.0361723 0.0372518 0.0305979 0.03547 0.0369378 0.0236016 0.00731657 -0.000551477 0.0239298 0.0409024 0.00428412 0.012221 -0.00587986 0.00167637 0.0234241 0.0399313 0.0228782 0.0679756 0.0429812 0.0350512 0.0133751 0.0252932 0.00858154 0.0142696 0.00287596 0.0136373 0.0419901 0.020903 -0.00771471 0.00786173 0.0500337 0.0135323 0.0411648 0.0357921 -0.00873156 0.0405176 0.0345349 0.00303871 0.0402748 0.108014 0.130134 0.0379312 0.0305654 -0.00357809 0.0120028 0.037203 -0.00607895 0.0577212
internal_weight=23071.3 17279.3 1454.66 5792 1372.28 15824.6 3519.91 1023.76 485.335 317.915 3421.37 333.359 430.9 3088.01 1436.5 1402.02 221.737 49.3004 61.9413 249.574 148.656 971.256 939.478 434.704 886.945 834.727 167.086 129.888 172.437 32.2336 4419.72 414.715 183.571 1180.28 271.854 69.8449 39.4986 63.4394 24.7153 504.774 107.318 100.917 53.8075 174.453 124.356 118.665 58.4593 490.934 72.6071 1651.5 48.52 40.0543 39.4991 4356.28 368.125 12304.7 304.816 153.865 59.7673 667.642 34.4884 13.499 13.0496 47.9317 271.418 52.2178 39.5978 167.42 14.3084
internal_count=676636 642279 21805 34357 18488 620474 124397 9515 11796 6264 124111 9820 12290 114291 51279 51057 6675 561 269 4138 1549 8014 7175 4378 6692 5832 2252 2666 6114 858 15869 12223 4944 44382 9532 1998 952 856 389 2797 871 2589 1173 4898 3279 2623 1042 2730 1255 63012 1629 135 970 15013 1821 496077 1712 1234 1381 3580 222 103 250 649 9551 860 403 5532 203
is_linear=0
shrinkage=0.0091957


Tree=7
num_leaves=70
num_cat=0
split_feature=2 12 12 48 53 12 42 42 42 48 2 45 41 41 49 42 42 2 45 2 41 39 9 41 12 9 2 45 30 26 12 48 41 0 9 45 26 49 30 12 9 41 42 41 9 45 2 17 13 41 26 39 41 41 9 26 39 30 9 12 13 2 45 37 8 26 53 13 12
split_gain=131925 21963.3 4889.97 4401.11 4202.99 3009.45 2579.83 4617.48 2242.15 1541.25 3848.29 1266.34 1175.59 951.085 1048.35 888.658 828.858 803.736 1881.22 2755.71 1318.56 1659.25 727.375 522.588 491.971 484.299 449.304 423.918 384.262 397.855 372 370.214 340.011 334.87 332.371 329.675 317.939 578.728 339.615 284.642 609.488 569.552 810.464 341.408 270.03 254.004 252.864 227.495 209.764 203.494 201.854 184.391 178.646 945.792 262.817 174.31 281.395 230.05 170.166 623.293 167.288 162.768 755.745 150.594 146.414 140.513 137.615 133.934 126.885
threshold=235.70500000000001 1064.4325168650323 776.48500000000013 1.0000000180025095e-35 1.5000000000000002 2070.7924824309762 0.70736016079090247 0.86169937851476253 0.50000128984010928 1.0000000180025095e-35 113.68500000000002 4.7306127007059668 -0.86602228983495377 -0.25879341026027053 1.0000000180025095e-35 -0.86323357409921375 -0.25554498896971239 7.0950000000000006 3.4262747366950523 30.035000000000004 -0.25879341026027053 1.0000000180025095e-35 26023.500000000004 -0.70683993892407326 275.06500000000005 27533.500000000004 184.21000000000001 5.2260938715160394 688.00014696782534 0.0062581591684248367 265.61500000000007 1.0000000180025095e-35 0.9544485788669389 135794.50000000003 13047.500000000002 5.4264247002849109 0.0052013829342914229 1.0000000180025095e-35 481.12305119494494 598.72000000000014 36780.000000000007 0.0002335336756597641 0.0010331694883316286 0.25881904510252091 41779.500000000007 5.5633953911721763 8.0150000000000023 1.2370789028511939 14.500000000000002 -0.86602228983495377 0.0078502813548696117 1.0000000180025095e-35 -0.70683993892407326 -0.70798547398979805 37969.500000000007 0.006062942676346863 1.0000000180025095e-35 576.01859234675737 45474.500000000007 322.30500000000006 3.5000000000000004 88.815000000000012 4.4900398771608012 2.5000000000000004 3459.6102182067266 0.0037445439581135901 1.0000000180025095e-35 2.5000000000000004 414.08500000000004
decision_type=2 2 2 2 2 2 2 2 2 2 2 2 2 2 2 2 2 2 2 2 2 2 2 2 2 2 2 2 2 2 2 2 2 2 2 2 2 2 2 2 2 2 2 2 2 2 2 2 2 2 2 2 2 2 2 2 2 2 2 2 2 2 2 2 2 2 2 2 2
left_child=1 6 3 -2 16 33 39 -8 28 10 17 -12 22 44 30 34 25 -9 19 20 47 -22 31 63 36 66 -13 -28 35 -30 -15 -4 52 64 -14 -5 37 -23 -39 -1 41 -41 43 -43 -10 -31 -18 58 -25 -42 -44 -16 53 -17 -55 56 -32 -58 -19 -60 -48 -20 -63 -7 -6 -46 -3 -24 -59
right_child=2 4 12 8 5 23 7 9 13 -11 11 26 15 14 51 32 46 18 61 -21 21 24 67 48 -26 -27 27 -29 29 45 55 -33 -34 -35 -36 -37 -38 38 -40 40 49 42 50 -45 65 -47 60 -49 -50 -51 -52 -53 -54 54 -56 -57 57 68 59 -61 -62 62 -64 -65 -66 -67 -68 -69 -70
leaf_value=-0.0041442897584097185 0.028292264894300832 0.041659849318508045 0.023616962699649139 0.032429786862179226 0.043799632020872323 0.066780190606333709 0.028499168560641844 -0.0042269136594125624 -0.00040892369074949813 -0.0036927011102606119 0.034998626531096498 -0.00066141977025562827 0.00012465773276609124 0.0017786333341605501 0.029866301258190193 0.031509539615098725 0.01322955693479793 -0.0029856119190048614 -0.00394177718385066 0.036609859919023421 0.04090300316843818 0.0011309987116141489 0.0086076368532072671 0.037165656108303316 0.028426852304159197 0.036743590818683426 0.039150323731603723 0.0021202674455971281 -0.0026122176178592902 -0.0022424590908145005 0.033826861930941463 0.00091516306297110726 0.01077704892984678 -0.0030852615397469136 0.019689935633691834 -0.00089330730606820537 -0.0032771151323147014 0.0081362652661302378 0.030501551499835394 -0.0037247585095488644 0.0043158061564882314 0.095297376988486324 0.030239985603784731 -0.002048801232180091 0.0043363643222433081 0.026280150055980087 0.02600890891746109 0.064287447085396354 -0.0045165321930496485 0.036317538989331669 -0.0044978512348543579 -0.0013284194903407512 0.028154379492909946 -0.001435033471425574 0.024476001350083525 0.027687905041154016 0.027711049172971566 -0.0032723483300507133 -0.001217110712216858 0.038079166006780234 0.034726401706515871 0.040769698578201716 -0.0027320927074647836 0.0022734253987050273 -0.00047096319342241797 0.023495068678379666 0.00090490349393536947 0.029927765100667695 0.014179872807742366
leaf_weight=12349.176605958492 399.42278428375721 1.6841187998652483 17.776645325124264 5.8438889235258094 4.3241138234734526 0.7290338259190311 107.65438266843557 540.10789177007973 61.991305731236935 1736.990439414978 83.001099366694689 37.969060957431793 27.490295499563217 13.523453017696736 4.0019154250621787 78.160049214959145 12.217064166441558 254.62605089507997 553.63551018945873 57.709980141371489 34.061076454818249 70.762925563380122 6.552455333992838 64.289878461509943 19.934145202860236 11.395091222599147 14.102800028398635 10.351271798834203 22.606259709224105 7.5039976257830849 19.175052516162395 63.013504607602954 22.432253837585449 168.58092073537409 42.977731604129076 276.285201812163 55.874806247651577 24.039148762822151 28.866040579974651 485.48550595901906 5.9337253253906992 0.6933550126850595 27.923244116827849 63.289035571739078 12.629628771916034 30.560241684317589 49.228921450674534 1.0089665055274952 2.4148058053106061 10.878482567146419 3.6469371989369384 41.529158258810639 3114.380191469565 29.601017683744431 10.138463599607347 183.18875201232731 16.132956789806485 12.929787402972577 45.14633328653872 9.4090225975960475 321.00702239573002 8.9998292997479421 53.471859782934189 12.888358406722544 2.1587181929498911 17.851439267396927 28.782078739255667 43.992519026622176 21.246438413858414
leaf_count=483977 1681 9 117 25 50 15 413 20268 1445 65060 379 1092 637 264 16 326 252 9060 20181 274 178 2346 108 546 125 126 78 243 733 209 85 1582 333 5862 552 8714 2032 626 166 18453 196 8 336 2193 271 252 392 9 76 173 134 841 13398 665 93 820 135 322 1640 106 1990 47 1846 421 67 153 834 308 272
internal_value=0.00346656 -0.00207472 0.0243829 0.0165183 0.0224099 0.00832487 -0.00307159 0.000138953 0.0102224 -0.000699859 0.00203177 0.0237543 0.0269912 0.017233 0.0209042 0.0275006 0.030887 0.000234349 0.00221344 0.00774158 0.00467688 0.0125628 0.0140946 0.030592 0.00772168 0.0123183 0.00879932 0.0234848 0.0019556 0.011987 0.0242367 0.0059132 0.0278348 -0.00189255 0.012059 -0.000201788 0.00542114 0.00935142 0.0203435 -0.00400093 -0.00103967 -0.00179462 0.00801097 -0.000978481 0.00485619 0.0206569 0.0329189 -0.00126043 0.0356556 0.0250347 0.0262256 0.00141841 0.0279532 0.022636 0.00517886 0.0254384 0.0195041 0.0140386 -0.00147655 0.00556515 0.0335681 -0.00318306 0.0035397 0.00577662 0.0290732 0.0155623 0.00317214 0.027167 0.00757692
internal_weight=21977.4 17374.4 4602.94 1146.42 679.7 255.386 16694.7 3747.72 746.999 3640.07 1903.08 145.424 3456.52 404.2 311.728 3325.18 424.314 1757.65 1217.55 601.438 543.729 233.538 131.335 80.3221 199.477 41.8613 62.4231 24.4541 342.8 60.6705 266.196 80.7901 3254.71 175.064 70.468 282.129 179.543 123.668 52.9052 12947 597.85 581.038 95.5526 63.9824 92.4724 38.0642 382.453 310.19 66.7047 16.8122 31.5702 45.5311 3232.28 117.9 39.7395 252.673 69.4842 50.3092 309.181 54.5554 370.236 616.107 62.4717 13.6174 6.48283 30.4811 30.4662 50.545 34.1762
internal_count=676636 642279 34357 16238 10640 7037 631639 126169 14557 125756 60696 1792 18119 4624 2755 16004 3603 58904 38636 16562 16288 5473 2115 1058 5295 969 1413 321 9933 1194 1898 1699 14815 5979 1189 8739 5170 3138 792 505470 21493 21124 2671 2201 1869 461 2634 10815 622 369 470 857 14482 1084 758 1634 814 729 10806 1746 2382 22074 1893 436 117 424 843 416 594
is_linear=0
shrinkage=0.00439413


Tree=8
num_leaves=70
num_cat=0
split_feature=2 46 46 41 47 46 41 56 26 45 2 45 34 2 45 2 23 41 46 45 47 41 41 45 2 34 2 45 26 27 34 53 0 2 53 17 41 46 41 46 47 56 2 2 45 2 46 47 13 2 34 47 18 23 48 2 14 17 34 2 45 34 11 41 14 45 2 27 34
split_gain=88034.1 15957.6 2812.6 1772.24 1750.5 1538.36 1034.4 801.035 679.02 577.829 513.108 6548.72 499.008 495.801 593.273 1141.99 417.79 521.864 413.012 337.354 337.111 323.959 313.074 291.423 6861.94 361.69 422.273 393.493 619.443 370.361 327.192 281.305 401.73 278.866 277.298 289.712 271.144 221.953 197.704 190.304 196.219 183.122 218.387 181.735 180.325 353.952 175.808 175.573 174.333 172.266 170.064 163.055 160.319 158.745 158.676 437.71 165.389 252.836 285.304 154.521 201.374 159.345 143.414 142.506 139.753 124.056 139.433 121.845 121.701
threshold=223.94000000000003 231.45500000000001 108.50500000000001 -0.70683993892407326 10.364677493488587 6.785000000000001 0.86592370632738891 1.5000000000000002 0.0085704786310677929 5.3835083373402171 134.07000000000002 4.8912885357583624 3.5000000000000004 6.7750000000000012 3.4050233727126682 85.285000000000011 3.3490182363048127 -0.70683993892407326 24.205000000000002 4.4504443390815895 0.37349275410128496 0.60917325271936484 -0.9656127889714452 3.5822681468852378 35.275000000000013 3.5000000000000004 7.705000000000001 3.1287322510640121 0.0047749487859336118 6.2093591538069335 3.5000000000000004 1.5000000000000002 107330.00000000001 110.3544275896203 1.0000000180025095e-35 1.0299941888062738 0.86592370632738891 269.00689211749597 0.67596022902574038 659.27821233487964 0.13644398174596503 1.0000000180025095e-35 253.69500000000002 676.26694904716931 4.0057865310952758 54.795000000000009 269.00689211749597 0.32114459711269366 5.5000000000000009 253.69500000000002 4.5000000000000009 0.11744513164301136 1095.2195712171604 0.90552554776657701 1.0000000180025095e-35 278.25500000000005 84.727507691452971 1.010007098621003 8.5000000000000018 16.895000000000003 3.1572131418510465 21.500000000000004 1.5000000000000002 -0.50004906855612818 61.429777467196338 3.2150685663723757 30.035000000000004 4.0016786795893458 2.5000000000000004
decision_type=2 2 2 2 2 2 2 2 2 2 2 2 2 2 2 2 2 2 2 2 2 2 2 2 2 2 2 2 2 2 2 2 2 2 2 2 2 2 2 2 2 2 2 2 2 2 2 2 2 2 2 2 2 2 2 2 2 2 2 2 2 2 2 2 2 2 2 2 2
left_child=1 10 4 39 9 50 8 16 13 -2 23 21 49 -5 51 20 17 -7 43 -17 44 63 46 24 25 26 -1 28 29 48 -26 -27 -33 -21 35 64 54 -38 -23 -3 52 -19 -43 -9 45 -16 -4 -31 -28 -11 -6 65 -41 -10 -24 -56 -57 58 -58 -34 61 -61 -20 -12 -32 -15 -67 -59 -49
right_child=2 3 22 6 5 7 -8 18 53 12 11 -13 -14 14 15 19 -18 41 62 33 -22 38 36 -25 30 31 27 -29 -30 47 34 32 59 -35 -36 -37 37 -39 -40 40 -42 42 -44 -45 -46 -47 -48 68 -50 -51 -52 -53 -54 -55 55 56 57 67 -60 60 -62 -63 -64 -65 -66 66 -68 -69 -70
leaf_value=-0.0088573714907044989 0.050953705796586944 -0.0030194660021806811 -0.0060865696621580983 0.0023600059477542042 0.02035646478229854 0.0035589439422347323 0.0006646203053253171 0.010805181826675704 -0.0068629663700048244 -0.010227883779886295 0.13416691242008841 -0.0084293663318164343 -0.0037022710076265257 0.042263772356754735 0.0031678115509509649 0.049321434214461751 0.05295445800223178 0.04926586407706162 0.022702365979839927 0.00011384054397835036 0.053839256659729426 0.088498422574516067 0.044766462247851128 -0.009498312803815679 0.068307484443241556 -0.0087754103766615795 0.0024712467513552856 -0.0086138568791888186 -0.0085360065747763798 0.016457934160643832 0.17903372249023686 0.079413328530207591 -0.0073353231115906884 0.035281297626268047 0.078944846107466313 0.2330898567716185 0.0023000685934572553 0.038017243270919439 0.2077380422154341 0.099993403675264908 0.053895488055443842 0.002621510661891242 0.038032249907581223 0.038555396072674983 -0.0090345778107659216 0.056276855250115075 0.032374604370913038 0.048520261121954622 0.031210185883401832 0.031186225292657476 -0.0040917674590609339 0.051920636400576065 0.0048959866281553235 0.036757025803316384 0.0073501037643915962 0.043195904267705823 0.03738192945944796 0.017925908371070429 -0.0031300314395999009 0.00086155025353161128 -0.0059284335356338093 0.058103645729706499 -0.00069334347819483683 0.067722069589184752 0.10297992300221837 0.0015607686029033142 0.049810999399234321 0.0432971820641831 0.09910808478433164
leaf_weight=317.62320525757968 26.98027615249157 177.25097849406302 18.088492214679718 40.568688878789544 37.607442036271095 40.425329077988863 96.309977572411299 28.095772605389357 45.834984848275781 11.333132578060029 3.2247901149094096 1098.5787510685623 229.38715429976583 288.12387048453093 64.179790407419205 175.34167046099901 255.18544920533895 147.89960622042418 40.267728015780449 25.877317909151316 13.949679009616373 2.7202582843601695 2948.5373969115317 7473.0617983005941 45.919347353279591 5982.0429486744106 55.499669704586267 105.78633808717132 75.600110093131661 15.978105489164589 2.9922186471521917 6.9273373056203118 62.94940821826458 135.88339711725712 15.164466451853512 2.5692442916333667 27.588875044137239 42.779345437884331 2.6905938796699047 1.7665065899491299 11.428617609664796 18.056187368929386 240.17334803007543 119.91238123551011 63.491702038794756 14.895882450044153 31.196333453059196 40.180319307371974 32.117418013513088 66.08540784008801 101.17935984395444 193.73803088068962 44.91320762783289 9.741952966898678 36.737634880468249 1189.4005009364337 35.195557057857513 20.620859812945127 31.960458150133491 7.1418970748782185 18.710416054353118 13.64885640516877 67.681577691808343 92.353233706206083 10.967139229178427 15.657713558524849 9.1385101079940778 160.57943488843739 5.1837130673229685
leaf_count=12523 87 5837 419 1179 590 1165 2897 524 1382 324 24 43797 7252 2099 1469 552 848 465 524 633 47 14 8960 303832 188 243072 1868 4097 2977 452 29 68 2300 1209 70 32 624 203 30 25 115 485 1922 950 1836 52 186 415 706 717 2920 639 1186 110 762 4116 157 250 484 262 672 176 1403 376 64 285 29 556 118
internal_value=0.00669361 -0.00474633 0.0390959 0.0266557 0.0270891 0.0330815 0.0315139 0.0375083 0.0342236 0.00740307 -0.00764152 -0.00147414 0.00357141 0.0360089 0.0373734 0.0297116 0.0429313 0.0372022 0.0226392 0.0398865 0.00779522 0.0741787 0.0428762 -0.00815922 -0.00669123 -0.00774833 -0.00077476 0.00699631 0.0143505 0.0259664 0.0850885 -0.00849012 0.00711137 0.0296564 0.10937 0.137213 0.0431462 0.0240175 0.148083 0.00203483 0.0174518 0.0405505 0.0355568 0.0332894 0.00328584 0.0131793 0.0182582 0.0444664 0.0130094 0.0251219 0.00253332 0.0448372 0.00851752 0.000786552 0.0434504 0.0408184 0.0416735 0.0343806 0.0181027 0.00221434 0.0174333 0.0384548 0.00803421 0.0699787 0.119406 0.0404498 0.01936 0.0404116 0.0543236
internal_weight=22890.7 16917.7 5972.96 1428.09 1430.27 1096.48 1192.73 957.697 1096.42 333.786 15489.6 1199.57 306.806 1040.85 1000.28 493.619 701.74 446.554 255.957 337.102 156.517 100.989 4542.68 14290.1 6817 6739.39 647.969 330.346 224.559 148.959 77.6124 6091.42 109.378 161.761 31.6931 16.5286 4493.4 70.3682 5.41085 235.359 58.1083 406.129 258.23 148.008 142.567 79.0757 49.2848 61.3421 87.6171 77.4185 138.787 506.658 46.6797 55.5769 4423.03 1474.49 1437.76 248.356 67.156 102.451 39.5012 20.7908 107.949 95.578 13.9594 312.92 24.7962 181.2 45.364
internal_count=676636 639743 36893 21581 20176 11796 14418 8286 11521 8380 618162 44241 8293 10029 8850 5798 4885 4037 3401 2394 3404 444 16717 573921 270089 269706 23156 10633 6536 3559 383 246550 3478 1842 195 125 16112 827 44 7163 1326 2872 2407 1474 3357 1521 605 985 2574 1041 3510 3052 1211 1492 15285 6325 5563 1447 641 3410 1110 438 1927 400 93 2413 314 806 533
is_linear=0
shrinkage=0.00981757


Tree=9
num_leaves=70
num_cat=0
split_feature=12 2 41 11 21 12 34 34 39 12 12 11 49 45 12 45 2 31 31 19 31 30 11 19 31 41 31 19 56 45 31 21 40 41 31 31 2 2 45 21 47 19 13 13 56 45 31 47 2 45 45 12 2 31 12 12 11 12 22 21 47 12 37 2 11 11 47 45 47
split_gain=76981.5 10509.5 7102.04 2448.87 1949.08 1494.92 1359.65 1230.8 2190.33 1611.92 895.316 2485.69 812.539 656.33 644.619 558.626 1091.34 644.722 1869.53 515.409 445.195 419.75 369.644 368.235 362.88 318.64 316.865 316.388 264.386 236.366 225.331 213.825 208.968 196.904 198.21 181.239 180.753 176.43 167.386 239.932 164.436 161.406 158.847 147.651 145.548 138.858 133.039 132.737 131.586 2484.13 123.036 118.348 116.618 116.465 108.855 102.689 101.602 115.46 101.21 100.202 98.4615 98.0445 91.6731 91.1376 90.0496 86.5728 82.2422 143.921 77.6123
threshold=615.2650000000001 235.70500000000001 -0.70683993892407326 8.5000000000000018 7.908548197610636 2519.0266388084979 6.5000000000000009 3.5000000000000004 1.0000000180025095e-35 281.20500000000004 890.3220242083579 3.5000000000000004 1.0000000180025095e-35 5.4264247002849109 1773.2450000000001 3.5113961628185675 32.745000000000012 0.0043371879945324158 0.0023179819647714088 653.50000000000011 0.0091230844533172761 686.02243544325086 3.5000000000000004 619.50000000000011 0.0047728964045705416 0.86592370632738891 0.0091230844533172761 608.50000000000011 1.5000000000000002 3.2396583448649916 0.011403125497377386 4.6208018808523823 1.0000000180025095e-35 0.70670575494408128 0.0047728964045705416 0.0048846761371278526 1012.6251937768164 6.7750000000000012 3.1861459788922888 1.0211278020547205 0.49940246101687097 504.50000000000006 2.5000000000000004 5.5000000000000009 1.5000000000000002 3.5294439903600132 0.0043371879945324158 1.560870237274872 144.78500000000003 4.9646262583905783 5.0370499997407405 890.3220242083579 253.69500000000002 0.0043371879945324158 1380.8850000000004 250.60500000000005 2.5000000000000004 469.00500000000005 0.0031690910808573002 2.9539399568392324 16.318611934642565 1380.8850000000004 11.500000000000002 32.115000000000002 5.5000000000000009 2.5000000000000004 0.20994987476525062 3.6641664357097765 0.10402437714447872
decision_type=2 2 2 2 2 2 2 2 2 2 2 2 2 2 2 2 2 2 2 2 2 2 2 2 2 2 2 2 2 2 2 2 2 2 2 2 2 2 2 2 2 2 2 2 2 2 2 2 2 2 2 2 2 2 2 2 2 2 2 2 2 2 2 2 2 2 2 2 2
left_child=1 7 4 10 14 -5 12 8 -1 15 11 25 24 -8 22 16 17 18 -10 42 62 56 51 43 32 30 -14 64 37 -20 66 -17 46 34 36 -23 61 58 40 45 53 -24 -6 -16 54 63 -3 -42 -9 -50 -33 -2 -37 -39 65 -26 57 -15 -12 -25 -59 -30 -11 -40 -13 -21 67 -4 -41
right_child=2 6 3 5 19 -7 13 48 9 20 28 27 26 21 23 31 -18 -19 29 44 -22 35 41 59 55 -27 -28 -29 33 -31 -32 50 -34 -35 -36 52 -38 38 39 68 47 -43 -44 -45 -46 -47 -48 -49 49 -51 -52 -53 -54 -55 -56 -57 -58 60 -60 -61 -62 -63 -64 -65 -66 -67 -68 -69 -70
leaf_value=0.049887125082639316 0.0044399031745269825 0.034237966656163923 0.037183603266213845 -0.0096464683999301221 0.0077601203352458828 0.041760755607931473 0.041722520377096804 -0.0088455291605679665 -0.0040481247049717218 0.037998750118734943 0.0024693403411927689 0.037755804291980194 0.04377798603197966 -0.0039452477616976111 0.0083523940561018792 -0.0085925194292140114 0.053298969599942229 -0.009899315207651839 0.055160865361321219 0.030188945958187614 -0.0099460566846425284 0.0078962751945478495 0.052834804099198107 0.00092730883327056968 0.010764815231505312 0.0088240487932535888 -0.0098919595769769216 -0.0061953321476130524 0.02085077881632013 -0.0099030287251087208 0.0044852707689170129 0.040777677884130642 0.0055863585715658134 -0.0053737927753456415 0.040442226711723331 -0.010137690951749281 -0.0026797647467738401 0.044078857011885714 0.014216210371706315 0.024578748222859114 0.067367487843107157 -0.0091268576738647734 0.039166324887449033 0.073627116762829001 -0.0088114450685981248 -0.0044790095069997564 -0.0059293930211600995 0.041780626053132867 0.062654758146785047 -0.0093340866058305716 -0.0056411758891736132 0.030990487456017023 0.040949588099391435 0.0072770049088962839 0.030846319897534214 0.041233581369127831 -0.0097886520803633255 0.005021590529467713 0.068969442670940587 0.036936208843751858 0.031268973639544256 0.058379835731483767 0.0098794803387014102 0.048557428531000202 -0.0063541240160104925 -0.0081929121668834308 0.040609299567971609 -2.6092609515338998e-05 0.040001171936429478
leaf_weight=75.990011379122734 35.321120353415608 88.870937755331397 38.981710895895958 165.44305076450109 16.31698097102344 77.142129689455032 51.772675290703773 11820.561582043767 238.30428106151521 112.7949852924794 16.848490525037054 22.041406182572249 12.678166970610617 88.623533952981234 4.0109270345419672 1467.5687785968184 37.01905981451273 332.84122718684375 71.952356049790978 7.8228218499571112 24.123656084761024 39.864157656207681 3.9328522216528645 28.066390046849847 10.552463475614784 34.625245885923505 52.850842582061887 168.26934890449047 21.033138083294038 5.5917848255485287 17.376258650794625 12.935562726110222 44.753824027255177 15.612224997952579 80.431484101340175 4.604713510721921 24.709937836974859 200.47548632323742 15.240260494872929 30.653528954833746 55.206697553396225 472.71586053259671 184.62635556608438 16.534886792302132 30.117027590051293 16.707630343735218 8.3868397865444404 28.792057354003191 47.697916485369205 681.35546685941517 8.9971553776413185 28.00107210315764 42.05356022156775 8.3420674651861173 27.971107140183449 440.31620282866061 91.106232656165957 42.605071526020765 2.4274462331086388 9.6558360289782268 19.324259839951992 9.3678937237709743 11.944022370502351 13.633383436128495 5.3414807450026265 18.077498225495219 638.03159795515239 12.849828688427804 4390.0001041814685
leaf_count=246 968 615 293 5929 224 333 146 492671 8614 814 472 315 37 2592 68 58697 126 13390 281 63 858 959 65 860 145 676 1263 5709 206 208 229 49 831 316 473 127 401 869 219 335 306 18354 1105 114 805 402 173 157 185 28017 315 406 192 135 178 1352 2934 977 47 137 237 43 214 51 190 454 2807 250 14054
internal_value=0.00634459 -0.00532928 0.0330354 0.0367308 0.00747116 0.00670169 0.0243403 -0.00739007 -0.00106212 -0.00272825 0.0379724 0.0293321 0.0327239 0.0098118 -0.00241667 -0.00482953 0.00237375 -0.000533052 0.00933682 0.0282312 0.0279737 0.00477627 -0.00570566 0.0280566 0.0362858 0.0373968 0.000495409 -0.00124695 0.0396156 0.0504671 0.0387954 -0.0081457 0.0228372 0.0270519 0.0307876 0.0230036 0.0166906 0.0400129 0.0401309 0.0396673 0.0472001 -0.00861431 0.0366171 0.0608992 0.0081648 0.0176439 0.030773 0.0586043 -0.00860026 -0.00462333 0.0217376 0.0161851 0.0359046 0.0426095 0.0176571 0.0405209 -0.00175005 0.00311416 0.0108802 0.0101545 0.013217 0.0324337 0.0353081 0.0304458 0.0291487 0.00340323 0.0396594 0.0279587 0.0398943
internal_weight=22980.8 15988 6992.75 6109.58 883.171 242.585 1038.36 14949.7 2400.06 2324.07 5867 937.517 658.409 379.954 598.239 2175.21 685.709 648.69 315.848 284.932 148.863 328.182 539.971 58.268 592.88 741.865 65.529 195.652 4929.48 77.5441 707.239 1489.5 142.012 151.155 135.542 86.5224 55.111 4778.33 4759.05 4466.23 292.816 476.649 200.943 20.5458 83.9885 45.5813 97.2578 83.9988 12549.6 729.053 21.9327 63.3222 46.6583 208.818 53.8714 450.869 241.659 150.553 19.2759 37.7222 61.9293 30.401 124.739 28.8736 27.3829 25.9003 689.863 51.8315 4420.65
internal_count=676283 617265 59018 35217 23801 6262 12580 604685 83812 83566 28955 10469 4416 8164 20972 81680 22619 22493 9103 2829 1886 8018 19793 1179 3116 4255 1300 6214 18486 489 3579 59061 1619 1439 1123 1278 650 17047 16528 15061 1467 18419 1329 182 1500 672 788 463 520873 28202 364 1374 319 1004 695 1497 6740 3806 519 997 1214 249 1028 270 505 517 3350 543 14389
is_linear=0
shrinkage=0.00964446


Tree=10
num_leaves=70
num_cat=0
split_feature=21 46 46 27 23 48 47 49 33 46 30 27 19 53 19 17 47 33 47 56 47 23 48 27 19 53 19 19 19 19 48 21 19 46 30 9 11 9 30 46 47 46 30 56 27 27 19 27 27 46 27 30 17 30 57 9 8 17 30 47 47 11 21 49 9 0 8 36 36
split_gain=66961.6 13119.1 2834.95 1516.24 960.892 953.058 766.152 675.348 751.837 585.083 385.815 572.851 366.317 296.328 477.097 269.055 263.261 430.92 256.687 255.56 266.181 251.167 244.345 233.679 223.779 328.03 285.11 508.933 262.444 197.93 166.635 544.152 180.85 161.155 160.501 152.162 148.295 147.282 141.612 140.421 1112.42 139.63 139.553 137.95 118.185 300.393 116.801 105.59 115.487 104.462 94.6524 93.1142 94.1553 91.9921 84.9162 118.48 84.382 80.727 80.0276 77.6745 76.9059 75.8202 75.8125 119.727 75.7175 181.946 151.458 97.7286 137.623
threshold=4.3980098796275273 231.45500000000001 111.69500000000001 7.008765235457223 1.3691624442596473 1.0000000180025095e-35 0.32114459711269366 1.0000000180025095e-35 8.3038697088565492 659.27821233487964 466.19636471132225 1.0000000180025095e-35 542.50000000000011 1.5000000000000002 538.50000000000011 2.452556757539277 0.023536363429043101 0.42790564171528994 0.0084673856401658015 1.5000000000000002 9.1944448750742858 0.19280088811310805 1.0000000180025095e-35 1.0000000180025095e-35 541.50000000000011 1.0000000180025095e-35 427.50000000000006 504.50000000000006 438.50000000000006 675.50000000000011 1.0000000180025095e-35 7.1339304892918678 633.50000000000011 5.5850000000000009 545.55246521384447 80914.500000000015 1.5000000000000002 29951.500000000004 675.99676828192867 151.30500000000004 1.4622392435234965 1003.4644787735172 545.55246521384447 1.5000000000000002 4.0016786795893458 4.9907812599667389 619.50000000000011 2.0007569758523278 14.999635061556427 133.56500000000003 5.1751581885209168 686.99992525487767 1.0604482781900855 672.99111105338943 1.5000000000000002 38553.500000000007 430401.62247028149 1.0299941888062738 684.99434685991412 4.3574361823222167 17.214915783990282 1.5000000000000002 10.480802714891086 1.0000000180025095e-35 43249.500000000007 135794.50000000003 1400226.6875691828 13.500000000000002 18.500000000000004
decision_type=2 2 2 2 2 2 2 2 2 2 2 2 2 2 2 2 2 2 2 2 2 2 2 2 2 2 2 2 2 2 2 2 2 2 2 2 2 2 2 2 2 2 2 2 2 2 2 2 2 2 2 2 2 2 2 2 2 2 2 2 2 2 2 2 2 2 2 2 2
left_child=1 4 3 5 13 -2 9 19 22 12 11 -7 35 24 -15 -6 -14 23 -11 20 36 -19 -9 -18 25 26 64 28 56 51 -4 32 50 -22 -25 -3 -5 46 60 -26 -41 -20 -24 62 -12 -46 -16 -36 54 -29 -32 -8 -53 -38 55 -49 -28 61 -23 -34 -21 -57 63 -33 65 66 67 -1 -69
right_child=2 6 30 7 15 10 29 8 -10 18 44 -13 16 14 37 -17 17 21 41 38 33 58 42 34 39 -27 27 49 -30 -31 31 43 59 -35 47 -37 53 -39 -40 40 -42 -43 -44 -45 45 -47 -48 48 -50 -51 -52 52 -54 -55 -56 57 -58 -59 -60 -61 -62 -63 -64 -65 -66 -67 -68 68 -70
leaf_value=-0.0040288627902176251 0.043157874460797142 0.033675459688402888 0.034541033363276422 0.029623219723173951 -0.0019422715434682237 0.003329806655366808 0.03604088194953043 0.035452095761327559 0.027834632715066039 0.0053044310051309964 -0.005246677453340981 0.043893796692080149 -0.0052178699331364301 0.061297756596690192 0.020741979063225478 0.039750368619579438 0.0014291693346137589 7.7416501659448579e-05 0.031956915894504466 -0.0035561657358790071 0.012481300557965536 0.028309284099026919 0.042656561027388351 0.044042915247155957 -0.0079964318291539643 0.034756024813319138 0.049252055981081247 -0.0038094117057410381 0.076425464915809191 0.0081696214057350343 0.005770109642907399 0.030106121669063492 -0.0020481267486501848 0.036136602875747798 -0.0062232650883213298 -0.0042518192143446362 0.024928120217197695 0.050450696857226286 0.0085609367486443703 -0.0056909519849975615 0.065963710840570108 0.018884137470718265 -0.0068024248691486182 -0.010582232837451562 0.059252211906093727 0.0019579011001840223 -0.0032198331681616657 0.0067314242463042632 0.001210570976742307 0.028968347992198624 0.028332321769872316 0.014193455599482537 0.034823918974469938 0.00033258857342344597 0.033682489937869591 -0.0095130947080262727 -0.0094526985516236086 0.10438522733527178 0.0016195987597840823 0.038396567197853337 0.032234331043777743 0.043657556922938844 0.033536310746984474 0.0082884824782366636 -0.0080552579433851353 -0.0044291707112704996 0.10792079389700307 0.055539334464017931 -0.0012239367129803552
leaf_weight=13.014072101563221 57.160344565287232 80.674277156591415 3507.3645492345095 63.879052557051182 18.39005989022553 90.223863186314702 316.85633499920368 14.230521220713852 164.29557182826102 45.400304727256298 247.76200823485851 44.592336157336831 89.102779088541865 11.488474780693648 19.15944816544652 47.589412748813629 39.446563875302672 223.47168197855353 275.90107998810709 5.7206170484423629 25.882627116516232 42.186202747747302 5.0751724690198889 35.22261943295598 12601.226671615615 19.05887888930738 3.2648638598620909 73.651252234354615 13.056030634790657 27.590348584577441 21.679402759298682 175.25128134712577 53.657902015373111 546.87083788216114 10.538258783519266 10.208962090313433 20.208649810403585 4.8583538476377717 65.077610686421394 704.24287967197597 19.066209791228175 94.002112681046128 127.56889994628727 6.3157533425837746 8.3746644109487516 121.89984895288944 193.11174276471138 29.661647165194154 16.400324227288365 9.3885239176452142 60.373111622408032 37.600498888641596 38.343346087262034 36.718568064272404 71.826308945193887 2.9616209529340258 5.8340058550238609 1.4485691431909788 12.49025423824787 4.3946106489747754 50.721375677734613 10.176735833287237 1356.6224635764956 24.610916933044791 507.10902575962245 368.48138644732535 1.5621513910591591 8.3572662901133281 6.5042901355773202
leaf_count=533 181 750 9598 637 612 2378 1722 38 1192 974 8291 143 2772 49 441 135 1073 6177 2140 107 567 412 15 203 533668 325 11 2984 62 567 439 821 1129 2373 297 329 246 50 983 28563 89 1148 3913 79 32 3546 6815 718 456 221 456 692 112 1014 536 99 251 23 290 16 412 111 4148 269 21555 14886 33 126 250
internal_value=0.00587151 -0.00444153 0.030002 0.0196053 -0.0071213 0.00730036 0.0215286 0.0258329 0.0142278 0.0174365 0.00330289 0.0167499 0.012121 -0.00728082 0.0031769 0.0281297 0.00943355 0.0120667 0.0260855 0.0302629 0.0324333 0.00443013 -0.000993218 0.0218234 -0.00744739 -0.00328771 -0.00400588 0.0104205 0.0498369 0.0321487 0.0333867 0.0310088 0.0135263 0.035068 0.0263362 0.0294141 0.0199395 9.85741e-05 0.0178732 -0.0077687 -0.00380114 0.0286356 -0.00490627 0.032576 -0.00149267 0.00564603 -0.00105575 0.0219718 0.0242156 -9.9383e-05 0.0223736 0.0338325 0.024614 0.00906825 0.0274649 0.0173647 0.0116326 0.0389611 0.0222154 0.00101805 0.0286052 0.0316668 0.0327512 0.0274205 -0.0056829 -0.00265921 0.0194868 0.0144907 0.030706
internal_weight=23066.5 16159.9 6906.53 1696.26 14648.4 570.013 1511.51 1126.25 311.17 1091.12 512.853 134.816 675.817 14582.4 228.618 65.9795 584.934 495.831 415.303 815.079 693.56 278.148 146.875 217.683 14353.8 1029.28 1010.22 105.195 22.1549 420.391 5210.27 1702.91 140.105 572.753 178.236 90.8832 120.806 217.13 121.52 13324.5 723.309 369.903 132.644 1562.8 378.037 130.275 212.271 143.013 132.475 83.0398 82.0525 392.8 75.9438 56.9272 116.075 44.2486 9.09887 14.5869 54.6765 58.0525 56.442 13.1384 1556.48 199.862 905.028 397.919 29.4378 27.8756 14.8616
internal_count=676283 633260 43023 26068 611659 14571 21601 11497 5158 18508 14390 2521 14246 610912 7355 747 13167 10395 4262 6339 4837 6879 3966 3516 603557 41237 40912 3529 324 3093 16955 7357 2040 2940 2443 1079 1897 7306 1502 562320 28652 3288 3928 5317 11869 3578 7256 2240 1943 3205 895 2526 804 1260 1487 951 262 233 702 1145 519 210 5238 1090 37383 15828 942 909 376
is_linear=0
shrinkage=0.00925878


Tree=11
num_leaves=70
num_cat=0
split_feature=12 2 11 12 29 12 11 34 12 27 55 29 28 2 26 31 2 29 34 0 34 29 27 30 12 31 2 17 31 12 12 31 26 15 28 49 31 26 29 15 26 29 2 29 30 15 2 49 2 27 31 29 26 30 2 29 8 13 2 2 9 9 29 13 12 11 53 12 11
split_gain=81010.9 10876 7020.62 3845.15 3056.38 2228.75 4202.39 1264.63 2129.44 1244.36 994.621 683.222 1943.76 1875.26 1057.75 537.976 514.463 423.715 422.421 243.938 211.133 191.559 182.959 460.556 152.102 136.092 134.23 168.936 223.221 132.484 131.148 128.103 146.017 127.074 126.538 120.719 144.602 474.391 590.051 250.991 118.543 112.851 111.044 113.152 111.822 108.683 101.654 100.097 99.7691 293.871 115.561 94.4287 750.124 188.239 93.8302 92.1364 104.954 90.7376 90.3322 89.2526 86.2201 84.1227 82.4288 78.7269 77.2243 140.748 77.0784 579.737 74.4748
threshold=615.2650000000001 235.70500000000001 7.5000000000000009 2519.0266388084979 121.6841942505378 890.3220242083579 3.5000000000000004 3.5000000000000004 281.20500000000004 7.008765235457223 1.0000000180025095e-35 49.961915746333638 63.939280579663915 21.97089451677731 1.0000000180025095e-35 0.0091230844533172761 6.7750000000000012 227.08195437346401 6.5000000000000009 1808087.5000000002 5.5000000000000009 21.551881189861628 2.0007569758523278 430.08221887492954 1246.0707256961671 0.011403125497377386 144.78500000000003 1.0803310052373389 0.0047728964045705416 250.60500000000005 746.5200000000001 0.0023179819647714088 0.0010838518762964584 56.350963003969348 57.383126188491694 1.0000000180025095e-35 8.745452531845324e-05 1.0000000180025095e-35 45.308156939234962 53.459200403597471 1.0000000180025095e-35 141.91892301356791 503.35000000000008 196.02123723822891 643.02469737496381 50.225000000000001 23.335000000000004 1.0000000180025095e-35 1012.6251937768164 16.001959684460914 0.0047728964045705416 45.308156939234962 1.0000000180025095e-35 545.55246521384447 1012.6251937768164 324.54469078281369 3771.0000000000005 1.5000000000000002 12.775 16.255000000000006 67031.369210798468 48615.000000000007 121.6841942505378 8.5000000000000018 1549.4025344931499 4.5000000000000009 1.5000000000000002 1549.4025344931499 13.500000000000002
decision_type=2 2 2 2 2 2 2 2 2 2 2 2 2 2 2 2 2 2 2 2 2 2 2 2 2 2 2 2 2 2 2 2 2 2 2 2 2 2 2 2 2 2 2 2 2 2 2 2 2 2 2 2 2 2 2 2 2 2 2 2 2 2 2 2 2 2 2 2 2
left_child=1 7 5 -4 9 6 17 8 10 18 -1 12 13 14 -12 41 55 25 57 22 -8 -16 23 40 -25 31 -9 51 47 45 -19 32 60 -20 46 36 -15 -38 -39 -40 64 63 -6 44 -44 -11 58 -29 66 50 -50 52 -28 -53 -26 -7 -57 -3 -24 -23 -2 -22 -34 -10 65 -18 -36 -68 -5
right_child=2 4 3 68 42 16 20 26 15 29 11 -13 -14 35 21 -17 19 30 33 -21 61 59 34 24 54 -27 27 28 -30 -31 -32 -33 62 -35 48 -37 37 38 39 -41 -42 -43 43 -45 -46 -47 -48 -49 49 -51 -52 53 -54 -55 -56 56 -58 -59 -60 -61 -62 -63 -64 -65 -66 -67 67 -69 -70
leaf_value=0.038859254475563806 0.0041695606109801633 -0.002467343432288412 -0.0054190272924897831 0.026255090246807524 -0.0040196014776105356 -0.0026460778702690007 0.021130279717335113 -0.0052257102509096756 0.025300778122265732 0.030167769510039275 -0.0022309048887890551 -0.0054808734109583306 0.032281719595588468 -0.0058480813431607617 0.034063148086191819 -0.0058753417788394479 0.019925464389321211 0.00022140702467734043 -0.00041208242797907484 -0.0060932526180184216 -0.0036170289905526963 0.023385202682635158 0.016952983714461928 -0.00089176880062664097 0.018163203602248889 0.0026363947773769985 -0.0058432238967178205 -0.0016413118071765412 0.040346574168833749 0.025246631811756688 0.015802415319681282 0.024909379120315565 0.024531394096909836 0.020869898484068609 0.024520427685119341 -0.0053396546340686336 -0.0058475417783249179 0.040961628650737984 -0.0043765951249037181 0.090508573167746811 0.027514344763587179 -0.0036900181990872274 0.0029135803675069166 -0.0047661285317015939 0.027187173603233698 -0.0036943444272722272 0.025778718624526947 0.047152192739943033 0.004435127472818619 0.023362559024938768 0.021022617439501179 0.028137749100941366 0.037806966337283997 -0.0043120689157204288 -0.0060079169226671392 0.050575199973236062 -0.0058582920650595942 0.020360428416049944 0.034396799189522466 -0.0014252405212311135 0.04557302450455044 0.029193109947047123 0.01356965543421833 0.0082209257426939294 0.023866698643361363 -0.0011209617426216204 -0.00037663267848510806 0.024501846714843938 0.0054084127818057022
leaf_weight=19.127453543245792 25.103587958961729 6.1356042567640534 490.04313435778022 170.99873970448971 209.19012117758393 27.839482640847564 11.869047023355959 11827.901148956269 129.37057510390878 4.5728901214897624 53.268811667338014 1128.4033538661897 60.348107676953077 83.295432657003403 71.500108290463686 24.12493970990181 41.771528912708163 32.00037725828588 108.24938293918967 8.7119801584631187 306.34297515079379 12.625199617818 11.010658532381056 34.765084482729435 39.228696936741471 10.127256851643322 67.039808450266719 18.479705858975656 6.5169619265943757 556.21386916004121 38.798624116927385 558.14899308979511 84.3911153357476 9.9324663300067169 3318.8696738164872 669.05247513949871 63.546605315059423 20.383872091770172 23.175722187384967 0.93159556575119395 131.14616887643933 4.8889300301671019 13.591127913445236 18.194840751588345 11.269294477999209 9.3469062875956279 569.76582807675004 1.4632771834731091 41.678785666823387 339.53511283360422 20.262895200401545 5.8477692641317836 15.777069061994551 610.30743044055998 6.0025680493563405 2.4056606423109761 1.9133764524012802 70.708529656752944 79.693195408210158 7.4911474343389264 1.7368374876677979 2.5473105274140826 30.344491146504879 9.4193211141973716 65.844762910157442 13.685615234076975 34.740803271532059 243.14850387349725 5.7625478692352763
leaf_count=77 542 111 18610 741 5948 875 172 492671 772 17 1997 45097 209 3359 278 858 388 735 2951 221 10926 195 120 852 487 172 2768 700 57 1860 367 2479 902 130 11839 26854 2551 86 919 14 402 128 244 507 54 192 2610 7 643 1321 119 67 118 24485 142 42 59 566 439 215 13 57 353 203 355 336 735 878 86
internal_value=0.00388915 -0.00312994 0.0203542 0.00279757 0.0148933 0.0222629 0.0149218 -0.00435779 -0.00055103 0.0205628 -0.00203467 -0.00239138 0.000880099 -0.00100524 0.0179559 0.0190152 0.0238696 0.0220551 0.00813966 0.0240157 -0.00243886 0.0296928 0.0240683 0.0199821 0.00806751 0.0233807 -0.00507981 -0.00270078 0.0114266 0.0248121 0.0087618 0.0236808 0.0188357 0.00137767 0.0243599 -0.00419845 -0.000207547 0.00414083 0.0184066 -0.000671512 0.0237569 0.0231951 -0.00230453 0.00602605 0.0139257 0.00743952 0.0266724 0.0019578 0.0239778 0.0212805 0.00986481 -0.00323581 0.00247525 -0.00400355 0.0149536 0.00115327 0.0256057 0.0185369 0.032282 0.0141471 0.00686687 -0.00334533 0.0216342 0.0241427 0.0196922 0.0147314 0.0242788 0.0213915 0.0255761
internal_weight=22751.9 15951.7 6800.24 666.804 1017.41 6133.43 1101.41 14934.3 2380.95 765.16 2213.15 2194.02 1065.62 1005.27 144.885 167.804 5032.02 780.651 195.026 4999.86 320.759 91.6165 4991.15 332.444 79.9963 709.852 12553.3 725.432 26.4599 570.134 70.799 699.725 141.576 118.182 4658.71 860.386 191.333 108.038 44.4912 24.1073 252.448 143.679 252.245 43.0553 24.8604 13.9198 660.47 19.943 3998.24 401.477 61.9417 698.972 82.8169 616.155 45.2313 32.1585 4.31904 76.8441 90.7039 20.1163 26.8404 308.89 114.736 138.79 121.302 55.4571 3596.76 277.889 176.761
internal_count=676283 617265 59018 19437 12580 39581 16718 604685 83812 5827 81851 81774 36677 36468 2685 1961 22863 5563 3758 21887 11155 688 21666 2962 1481 4461 520873 28202 764 2069 1102 4289 1810 3081 18704 33783 6929 3570 1019 933 1481 1103 6753 805 298 209 3169 707 15535 2083 762 27438 2886 24552 629 976 101 677 559 410 555 10983 1255 975 1079 724 13452 1613 827
is_linear=0
shrinkage=0.00569717


Tree=12
num_leaves=70
num_cat=0
split_feature=12 23 41 46 42 21 11 28 12 48 42 42 42 41 12 19 45 21 27 47 46 46 46 47 53 42 11 46 45 23 41 41 28 27 45 23 45 12 46 28 56 45 17 46 47 30 41 47 12 11 46 42 46 31 31 45 11 17 45 45 47 17 18 47 21 11 12 23 56
split_gain=64736.5 7892.77 6200.74 3430.84 2817.71 1844.5 1823.93 1574.96 1158.29 970.245 833.909 623.792 1385.08 602.378 563.341 493.259 392.359 340.39 310.567 297.193 290.557 252.864 252.851 243.047 242.319 240.152 235.4 231.347 211.53 1348.69 335.986 700.935 546.021 731.203 211.433 274.356 199.722 169.295 168.904 206.672 170.721 168.765 153.471 148.774 146.589 142.794 142.58 135.521 133.341 950.034 132.286 156.68 126.693 126.381 416.246 137.199 121.11 115.252 109.444 106.046 451.506 159.617 105.33 99.0418 97.6851 95.822 352.209 161.139 92.8129
threshold=583.68839391853783 1.2364192910143796 -0.70683993892407326 246.92733110845299 -0.86323357409921375 7.1339304892918678 8.5000000000000018 91.622558445752574 2519.0266388084979 1.0000000180025095e-35 0.70736016079090247 0.70736016079090247 0.86169937851476253 0.86592370632738891 1773.2450000000001 651.50000000000011 5.095374647080642 4.91503420709049 11.003692663185364 0.905058444957063 6.1810546066756773 295.64966842850771 269.00689211749597 0.63242327943480914 1.5000000000000002 0.71810434828346181 3.5000000000000004 231.45500000000001 3.5822681468852378 -0.08083792081606149 -0.25879341026027053 -1.0000000180025095e-35 64.448195168976653 7.008765235457223 3.755720004197832 0.43399843950755163 3.2150685663723757 287.88500000000005 24.205000000000002 59.835918286510172 1.5000000000000002 1.886311498773398 1.2370789028511939 1003.4644787735172 0.45851621987058416 545.55246521384447 -0.14677421237738539 32.320322172756256 808.67500000000007 4.5000000000000009 17.678374856205668 0.70736016079090247 231.45500000000001 0.0023179819647714088 0.0043371879945324158 3.2396583448649916 3.5000000000000004 1.0501944458615784 4.189881986062864 3.3605489681191689 0.099953677567741012 6.0212438364358336 2180.3467633780733 0.79164473362046517 1.0002459818133094 6.5000000000000009 1773.2450000000001 1.5265254986646208 1.5000000000000002
decision_type=2 2 2 2 2 2 2 2 2 2 2 2 2 2 2 2 2 2 2 2 2 2 2 2 2 2 2 2 2 2 2 2 2 2 2 2 2 2 2 2 2 2 2 2 2 2 2 2 2 2 2 2 2 2 2 2 2 2 2 2 2 2 2 2 2 2 2 2 2
left_child=1 3 5 11 22 14 13 9 -8 -3 19 -1 -13 20 26 68 -11 28 -9 59 -6 -17 47 -24 43 -18 -2 57 29 30 42 -32 33 37 41 44 -35 53 39 50 48 -12 -14 -16 -36 -27 -19 -4 49 -40 51 -22 65 -33 55 -55 -43 -15 -59 60 61 -5 -49 -29 -34 67 -67 -50 -7
right_child=2 7 4 10 6 15 8 18 -10 16 34 12 17 27 24 21 25 46 -20 -21 38 -23 23 -25 -26 45 -28 63 -30 -31 31 32 64 36 35 -37 -38 -39 40 -41 -42 56 -44 -45 -46 -47 -48 62 52 -51 -52 -53 -54 54 -56 -57 -58 58 -60 -61 -62 -63 -64 -65 -66 66 -68 -69 -70
leaf_value=-0.0062369498502059242 0.0071487936407300581 0.022367428137745945 -0.0053514848095196519 -9.5150949083868633e-05 0.0053005905532995754 0.023051770214707074 -0.0059958037636601907 -0.0066672459236410461 0.024437203711218304 0.030004218231555729 -0.0066904170729227969 0.025552906110850832 -0.0058656506956382718 -0.0015176125576242432 0.035778177179448999 -0.0035151185853750798 -0.00467447808064376 -0.0016789989221568911 0.022883924095387014 0.03084666387675741 0.055517811018923578 0.017833376896316533 0.0004755841440721845 0.021231591810441704 0.001676545910376345 0.017135428218446609 -0.0060975900679352997 0.0095314398516249711 -0.005426646556065666 0.040613539281070331 0.061670855162038164 -0.002094872373775035 -0.0061870191041109475 0.037575786306706251 -0.0045898162178838247 0.019658233448781072 -0.006588175513093761 0.063874979662939632 0.022771966475590395 0.024498770108970724 0.011713363267298897 0.02330030506687409 0.077790351176731054 0.0030633476527322091 0.029739795582472424 0.0020690148779355143 0.019894781483011038 0.022833336823889303 0.032610549782513508 -0.0053042270823204646 0.042345549530171278 0.023451908229166898 0.023046503169884991 0.040644937248710579 -0.0066094279961003517 -0.0065616050898949056 -0.0021459396268274319 0.090088204321269835 0.014003345875652601 -0.0030650852402548997 0.047724086010432584 0.047159028280099595 -0.00077881796089589888 0.023791830063410846 0.031047755873351984 -0.0031770908015677684 0.029757781851899274 0.024973907848686382 0.012342211082776279
